{"learner":{"attributes":{},"feature_names":["Prop_Genome_total_copy_number_0","Prop_Genome_total_copy_number_1","Prop_Genome_total_copy_number_2","Prop_Genome_total_copy_number_3","Prop_Genome_total_copy_number_4","Prop_Genome_total_copy_number_5","Prop_Genome_total_copy_number_6","Prop_Genome_total_copy_number_Neg","Prop_Genome_total_copy_number_High","Deviation_Med","Deviation_Q_VLow","Deviation_Q_Low","Deviation_Q_High","Deviation_Q_VHigh"],"feature_types":[],"gradient_booster":{"model":{"cats":{"enc":[],"feature_segments":[],"sorted_idx":[]},"gbtree_model_param":{"num_parallel_tree":"1","num_trees":"388"},"iteration_indptr":[0,1,2,3,4,5,6,7,8,9,10,11,12,13,14,15,16,17,18,19,20,21,22,23,24,25,26,27,28,29,30,31,32,33,34,35,36,37,38,39,40,41,42,43,44,45,46,47,48,49,50,51,52,53,54,55,56,57,58,59,60,61,62,63,64,65,66,67,68,69,70,71,72,73,74,75,76,77,78,79,80,81,82,83,84,85,86,87,88,89,90,91,92,93,94,95,96,97,98,99,100,101,102,103,104,105,106,107,108,109,110,111,112,113,114,115,116,117,118,119,120,121,122,123,124,125,126,127,128,129,130,131,132,133,134,135,136,137,138,139,140,141,142,143,144,145,146,147,148,149,150,151,152,153,154,155,156,157,158,159,160,161,162,163,164,165,166,167,168,169,170,171,172,173,174,175,176,177,178,179,180,181,182,183,184,185,186,187,188,189,190,191,192,193,194,195,196,197,198,199,200,201,202,203,204,205,206,207,208,209,210,211,212,213,214,215,216,217,218,219,220,221,222,223,224,225,226,227,228,229,230,231,232,233,234,235,236,237,238,239,240,241,242,243,244,245,246,247,248,249,250,251,252,253,254,255,256,257,258,259,260,261,262,263,264,265,266,267,268,269,270,271,272,273,274,275,276,277,278,279,280,281,282,283,284,285,286,287,288,289,290,291,292,293,294,295,296,297,298,299,300,301,302,303,304,305,306,307,308,309,310,311,312,313,314,315,316,317,318,319,320,321,322,323,324,325,326,327,328,329,330,331,332,333,334,335,336,337,338,339,340,341,342,343,344,345,346,347,348,349,350,351,352,353,354,355,356,357,358,359,360,361,362,363,364,365,366,367,368,369,370,371,372,373,374,375,376,377,378,379,380,381,382,383,384,385,386,387,388],"tree_info":[0,0,0,0,0,0,0,0,0,0,0,0,0,0,0,0,0,0,0,0,0,0,0,0,0,0,0,0,0,0,0,0,0,0,0,0,0,0,0,0,0,0,0,0,0,0,0,0,0,0,0,0,0,0,0,0,0,0,0,0,0,0,0,0,0,0,0,0,0,0,0,0,0,0,0,0,0,0,0,0,0,0,0,0,0,0,0,0,0,0,0,0,0,0,0,0,0,0,0,0,0,0,0,0,0,0,0,0,0,0,0,0,0,0,0,0,0,0,0,0,0,0,0,0,0,0,0,0,0,0,0,0,0,0,0,0,0,0,0,0,0,0,0,0,0,0,0,0,0,0,0,0,0,0,0,0,0,0,0,0,0,0,0,0,0,0,0,0,0,0,0,0,0,0,0,0,0,0,0,0,0,0,0,0,0,0,0,0,0,0,0,0,0,0,0,0,0,0,0,0,0,0,0,0,0,0,0,0,0,0,0,0,0,0,0,0,0,0,0,0,0,0,0,0,0,0,0,0,0,0,0,0,0,0,0,0,0,0,0,0,0,0,0,0,0,0,0,0,0,0,0,0,0,0,0,0,0,0,0,0,0,0,0,0,0,0,0,0,0,0,0,0,0,0,0,0,0,0,0,0,0,0,0,0,0,0,0,0,0,0,0,0,0,0,0,0,0,0,0,0,0,0,0,0,0,0,0,0,0,0,0,0,0,0,0,0,0,0,0,0,0,0,0,0,0,0,0,0,0,0,0,0,0,0,0,0,0,0,0,0,0,0,0,0,0,0,0,0,0,0,0,0,0,0,0,0,0,0,0,0,0,0,0,0,0,0,0,0,0,0,0,0,0,0,0,0,0,0,0,0,0,0,0,0,0,0,0,0],"trees":[{"base_weights":[3.9666716E-8,-3.420925E-1,3.4437244E0,-7.4010843E-1,2.4493537E0,4.1905265E0,1.8655243E0,-9.4963604E-1,7.4341804E-2,3.8840318E0,1.1852191E-1,4.424239E0,1.5883429E0,1.3543023E0,3.3907697E0,-1.014622E0,-1.16403215E-1,6.62775E-1,-5.6219953E-1,4.3177376E0,-8.1807613E-1,1.1821815E0,-1.0154915E0,4.9462285E0,3.109022E0,2.285734E0,3.5459274E-1,2.1813886E0,6.3769776E-1,3.5592027E0,7.2872084E-1,-1.1316556E0,-7.159595E-1,8.63911E-1,-8.955338E-1,1.4183196E0,1.8089237E-2,-6.754639E-1,1.4587538E-1,4.516496E0,1.4023914E0,1.0472292E0,-1.0161594E0,1.815507E0,-8.171409E-1,-2.0062122E-1,-1.1174142E0,5.029535E0,-4.2304263E-1,3.221418E0,-6.0443515E-1,1.4566824E0,3.0437531E0,-2.7381572E-1,2.3724525E0,2.4341445E0,3.7149787E-1,1.3758866E0,7.285271E-2,3.7197418E0,7.5892115E-1,5.2837783E-1,-2.9579753E-1,-3.429352E-1,3.8504025E-1,-3.0750722E-1,-1.2897995E-1,5.9788185E-1,-2.429353E-1,-1.0200819E-1,-3.1859896E-1,-2.332458E-3,5.879662E-1,-1.3235784E-1,4.129603E-1,-8.7385245E-2,-2.6493654E-1,-1.4154583E-1,4.2885852E-1,1.5104507E0,1.0379956E0,-2.4997143E-2,1.2538936E0,-7.5718805E-2,8.7794054E-1,-3.1565163E-1,1.11228466E-1,2.5231433E-1,8.0608517E-1,-2.849526E-1,1.0858376E-1,-2.2431317E-1,8.7875694E-2,-3.3998895E-1,-5.491371E-2,1.5440558E0,9.8375475E-1,-2.384658E-1,1.8036965E-1,7.8685874E-1,1.1669819E0,1.11228466E-1,-2.787117E-1,7.713255E-1,5.2846055E-2,1.11228466E-1,9.6378666E-1,1.9725366E-1,-2.3972844E-1,9.3402606E-1,1.4794192E-1,8.9296895E-1,5.1990014E-1,6.032061E-1,-8.699089E-2,3.1166908E-1,8.199421E-1,-5.7630416E-2,5.1708496E-1,1.2363899E0,7.7163315E-1,3.4084E-1,-5.8993116E-2,-2.1705739E-1,1.11228466E-1],"categories":[],"categories_nodes":[],"categories_segments":[],"categories_sizes":[],"default_left":[1,1,0,1,0,0,0,1,0,0,0,0,0,0,0,1,0,0,0,0,0,0,0,0,0,0,0,0,0,0,0,1,0,0,0,0,0,0,0,0,0,0,0,0,0,0,0,0,0,0,0,0,0,0,0,0,0,0,0,0,0,0,0,0,0,0,0,0,0,0,0,0,0,0,0,0,0,0,0,0,0,0,0,0,0,0,0,0,0,0,0,0,0,0,0,0,0,0,0,0,0,0,0,0,0,0,0,0,0,0,0,0,0,0,0,0,0,0,0,0,0,0,0,0,0],"id":0,"left_children":[1,3,5,7,9,11,13,15,17,19,21,23,25,27,29,31,33,35,37,39,41,43,45,47,49,51,53,55,57,59,61,63,65,67,69,71,73,75,77,79,81,83,85,87,89,91,93,95,97,99,101,103,105,107,109,111,113,115,117,119,121,-1,123,-1,-1,-1,-1,-1,-1,-1,-1,-1,-1,-1,-1,-1,-1,-1,-1,-1,-1,-1,-1,-1,-1,-1,-1,-1,-1,-1,-1,-1,-1,-1,-1,-1,-1,-1,-1,-1,-1,-1,-1,-1,-1,-1,-1,-1,-1,-1,-1,-1,-1,-1,-1,-1,-1,-1,-1,-1,-1,-1,-1,-1,-1],"loss_changes":[1.0884457E4,9.339367E3,9.761631E2,1.2554253E3,3.5074458E3,3.371328E2,2.0591144E2,3.167119E2,5.645331E2,1.3276797E3,4.845413E2,3.4072852E2,4.065885E1,1.19436005E2,2.7494934E1,1.8890576E2,3.2497125E2,3.8142752E2,5.816777E1,3.382256E2,2.1634449E1,2.6388547E2,1.5928146E1,1.6746484E2,6.458191E1,1.4801605E1,2.4221338E1,4.219873E1,4.603193E1,2.5433838E1,6.0754538E0,1.0936621E2,1.3488416E2,3.5775702E2,2.1553345E1,2.784779E2,2.648816E2,4.9555084E1,8.049753E1,2.8718848E2,1.6293268E2,1.4994378E1,2.929184E0,1.3164795E2,8.252007E0,6.3860044E0,2.3545227E0,5.7882812E1,2.9801798E0,4.8145508E1,2.0065742E0,2.3145855E1,5.611847E0,7.898389E0,4.7557545E0,2.6215973E1,1.4381533E1,1.9071022E1,2.8207064E1,1.6677002E1,1.9046979E0,0E0,1.263783E0,0E0,0E0,0E0,0E0,0E0,0E0,0E0,0E0,0E0,0E0,0E0,0E0,0E0,0E0,0E0,0E0,0E0,0E0,0E0,0E0,0E0,0E0,0E0,0E0,0E0,0E0,0E0,0E0,0E0,0E0,0E0,0E0,0E0,0E0,0E0,0E0,0E0,0E0,0E0,0E0,0E0,0E0,0E0,0E0,0E0,0E0,0E0,0E0,0E0,0E0,0E0,0E0,0E0,0E0,0E0,0E0,0E0,0E0,0E0,0E0,0E0,0E0],"parents":[2147483647,0,0,1,1,2,2,3,3,4,4,5,5,6,6,7,7,8,8,9,9,10,10,11,11,12,12,13,13,14,14,15,15,16,16,17,17,18,18,19,19,20,20,21,21,22,22,23,23,24,24,25,25,26,26,27,27,28,28,29,29,30,30,31,31,32,32,33,33,34,34,35,35,36,36,37,37,38,38,39,39,40,40,41,41,42,42,43,43,44,44,45,45,46,46,47,47,48,48,49,49,50,50,51,51,52,52,53,53,54,54,55,55,56,56,57,57,58,58,59,59,60,60,62,62],"right_children":[2,4,6,8,10,12,14,16,18,20,22,24,26,28,30,32,34,36,38,40,42,44,46,48,50,52,54,56,58,60,62,64,66,68,70,72,74,76,78,80,82,84,86,88,90,92,94,96,98,100,102,104,106,108,110,112,114,116,118,120,122,-1,124,-1,-1,-1,-1,-1,-1,-1,-1,-1,-1,-1,-1,-1,-1,-1,-1,-1,-1,-1,-1,-1,-1,-1,-1,-1,-1,-1,-1,-1,-1,-1,-1,-1,-1,-1,-1,-1,-1,-1,-1,-1,-1,-1,-1,-1,-1,-1,-1,-1,-1,-1,-1,-1,-1,-1,-1,-1,-1,-1,-1,-1,-1],"split_conditions":[5.004776E-1,6.303747E-1,4.179697E-2,1.52569E-1,2.6183698E-1,4.9409803E-2,6.1507978E-2,3.593791E-1,1.3145377E-1,3.102768E-2,2.4604477E-1,4.0842157E-2,4.5181084E-2,5.6531154E-2,1.9341895E-1,1.8947463E-1,3.4329996E-1,2.3763226E-1,3.9446506E-1,4.3203656E-2,4.1922115E-2,2.1044297E-2,2.5959975E-1,5.9185885E-3,4.1723284E-3,2.7000825E-3,3.0493813E-2,7.886117E-2,4.033195E-2,2.4712392E-6,2.1619393E-1,9.3794054E-1,1.1588377E-1,5.9185885E-3,2.5213712E-1,2.8955783E-3,1.3503277E-1,2.4667753E-1,4.7854386E-2,1.7924225E-1,3.3173136E-2,8.845641E-1,6.265356E-3,6.3749164E-2,8.5084647E-1,8.3768845E-2,2.8069174E-1,9.7910024E-2,8.229249E-1,5.2755937E-2,2.8955783E-3,8.050678E-4,5.2826498E-2,2.637442E-1,4.081816E-3,1.4572839E-2,1.7240399E-1,1.9227097E-2,3.9622787E-4,3.963144E-1,7.1758926E-2,5.2837783E-1,3.4002358E-5,-3.429352E-1,3.8504025E-1,-3.0750722E-1,-1.2897995E-1,5.9788185E-1,-2.429353E-1,-1.0200819E-1,-3.1859896E-1,-2.332458E-3,5.879662E-1,-1.3235784E-1,4.129603E-1,-8.7385245E-2,-2.6493654E-1,-1.4154583E-1,4.2885852E-1,1.5104507E0,1.0379956E0,-2.4997143E-2,1.2538936E0,-7.5718805E-2,8.7794054E-1,-3.1565163E-1,1.11228466E-1,2.5231433E-1,8.0608517E-1,-2.849526E-1,1.0858376E-1,-2.2431317E-1,8.7875694E-2,-3.3998895E-1,-5.491371E-2,1.5440558E0,9.8375475E-1,-2.384658E-1,1.8036965E-1,7.8685874E-1,1.1669819E0,1.11228466E-1,-2.787117E-1,7.713255E-1,5.2846055E-2,1.11228466E-1,9.6378666E-1,1.9725366E-1,-2.3972844E-1,9.3402606E-1,1.4794192E-1,8.9296895E-1,5.1990014E-1,6.032061E-1,-8.699089E-2,3.1166908E-1,8.199421E-1,-5.7630416E-2,5.1708496E-1,1.2363899E0,7.7163315E-1,3.4084E-1,-5.8993116E-2,-2.1705739E-1,1.11228466E-1],"split_indices":[4,2,5,4,12,1,2,2,5,0,9,3,8,3,3,8,12,9,4,4,0,0,9,0,0,6,6,8,10,7,9,1,6,0,9,2,6,5,2,12,3,2,7,1,2,10,3,8,4,2,2,3,1,12,5,3,9,8,1,12,5,0,1,0,0,0,0,0,0,0,0,0,0,0,0,0,0,0,0,0,0,0,0,0,0,0,0,0,0,0,0,0,0,0,0,0,0,0,0,0,0,0,0,0,0,0,0,0,0,0,0,0,0,0,0,0,0,0,0,0,0,0,0,0,0],"split_type":[0,0,0,0,0,0,0,0,0,0,0,0,0,0,0,0,0,0,0,0,0,0,0,0,0,0,0,0,0,0,0,0,0,0,0,0,0,0,0,0,0,0,0,0,0,0,0,0,0,0,0,0,0,0,0,0,0,0,0,0,0,0,0,0,0,0,0,0,0,0,0,0,0,0,0,0,0,0,0,0,0,0,0,0,0,0,0,0,0,0,0,0,0,0,0,0,0,0,0,0,0,0,0,0,0,0,0,0,0,0,0,0,0,0,0,0,0,0,0,0,0,0,0,0,0],"sum_hessian":[9.237207E3,8.403338E3,8.3386975E2,7.355321E3,1.0480171E3,5.6490314E2,2.689666E2,5.850134E3,1.505187E3,6.483048E2,3.9971222E2,5.1770575E2,4.719741E1,2.0286092E2,6.610569E1,5.4266763E3,4.2345752E2,7.8212854E2,7.230585E2,5.93632E2,5.4672775E1,2.0623216E2,1.9348007E2,3.6863815E2,1.490676E2,2.9608313E1,1.7589096E1,9.322221E1,1.096387E2,6.1854992E1,4.2506986E0,3.8968645E3,1.5298118E3,1.8747046E2,2.3598705E2,3.5955045E2,4.2257806E2,6.233869E2,9.967155E1,5.552292E2,3.8402863E1,4.837002E0,4.9835773E1,1.5668954E2,4.954262E1,2.1839796E1,1.7164027E2,3.6306827E2,5.5698805E0,1.448169E2,4.2506986E0,1.5537036E1,1.4071278E1,1.4071278E1,3.5178194E0,8.149615E1,1.1726065E1,4.690426E1,6.2734447E1,5.8190598E1,3.6643953E0,1.7589097E0,2.4917889E0,3.8789822E3,1.7882248E1,7.3405164E2,7.957601E2,1.1183734E2,7.563312E1,5.5112503E1,1.8087454E2,9.923182E1,2.6031863E2,3.163106E2,1.0626746E2,2.1957056E2,4.0381635E2,6.7718025E1,3.1953526E1,3.6995734E2,1.8527182E2,2.5650766E1,1.2752095E1,3.3712435E0,1.4657581E0,4.8809746E1,1.0260307E0,7.490024E1,8.17893E1,4.470562E1,4.837002E0,1.011373E1,1.1726065E1,1.6856218E2,3.078092E0,3.3844354E2,2.4624737E1,4.2506986E0,1.3191823E0,7.9004364E1,6.581254E1,1.0260307E0,3.2246678E0,7.768518E0,7.768518E0,1.0260307E0,1.3045247E1,4.9835777E0,9.0877E0,2.0520613E0,1.4657581E0,4.411932E1,3.737683E1,2.7849402E0,8.941124E0,3.8989166E1,7.9150934E0,5.481935E1,7.9150934E0,4.11878E1,1.7002794E1,2.4917889E0,1.1726065E0,1.4657581E0,1.0260307E0],"tree_param":{"num_deleted":"0","num_feature":"14","num_nodes":"125","size_leaf_vector":"1"}},{"base_weights":[-9.799183E-2,-3.6016512E-1,1.2686538E0,-7.0404446E-1,9.703238E-1,1.5933769E0,8.5607153E-1,-9.086142E-1,-1.2751742E-1,1.2537642E0,-8.8148546E-1,1.644094E0,-5.377655E-1,5.1839495E-1,1.3355016E0,-1.0069761E0,-6.564362E-1,-3.432515E-1,8.424462E-1,1.4144619E0,-9.1594285E-1,-1.5619951E-1,-1.0298401E0,1.7154518E0,9.775691E-1,-7.5180703E-1,4.713973E-1,8.932698E-1,-2.416066E-3,1.8434535E0,1.0733776E0,-1.080365E0,-5.501161E-1,-9.6026766E-1,-4.13258E-1,-6.485111E-1,3.379894E-1,-4.2236015E-1,1.8107876E0,1.4782376E0,-1.0251062E0,-7.220539E-1,-1.1277599E0,1.9743313E-1,-9.9591094E-1,-6.3887405E-1,-1.0570066E0,1.7944926E0,1.264711E0,7.0662636E-1,1.563889E0,-9.0103894E-1,1.4198586E-1,-1.07946046E-1,3.2995945E-1,7.359799E-1,1.8372922E0,5.01824E-1,-4.286059E-1,1.9546654E0,-2.8349832E-1,1.4051962E0,2.9557136E-1,-3.3034968E-1,1.4212094E-1,-3.953064E-2,-2.6380312E-1,-3.2275552E-1,-2.5633112E-1,-2.676104E-1,-5.229794E-2,-2.4613617E-1,-4.2296555E-2,4.6834823E-1,-9.662147E-2,-2.9409927E-1,4.8265386E-2,6.6260344E-1,-1.1237066E-1,5.150734E-1,3.3357388E-1,-5.4918434E-3,-4.175809E-1,-2.763758E-1,-1.3540985E-1,-3.4505823E-1,-1.00769795E-1,-1.8355268E-1,1.5688094E-1,-3.22615E-1,-4.101939E-2,-2.4594729E-1,1.5438254E-1,-1.326546E-1,-3.2028127E-1,5.4312557E-1,1.4547336E-1,2.8881526E-1,4.85305E-1,3.099288E-1,3.0419862E-2,-1.0252311E-1,5.035064E-1,-3.176042E-1,8.84219E-2,-1.7091451E-2,2.9635733E-1,3.3727157E-1,7.648153E-1,9.621919E-3,2.3379411E-1,-9.3887836E-2,-2.8319353E-1,6.0051864E-1,-2.3599447E-1,-3.189784E-1,2.0259295E-1,2.5660333E-1,5.190744E-1,-6.350221E-3,2.7895474E-1],"categories":[],"categories_nodes":[],"categories_segments":[],"categories_sizes":[],"default_left":[1,1,0,1,0,0,0,1,0,0,0,0,0,0,0,1,0,0,0,0,0,0,0,0,0,0,0,0,0,0,0,1,0,0,0,0,0,0,0,0,0,0,0,0,0,0,0,0,0,0,0,0,0,0,0,0,0,0,0,0,0,0,0,0,0,0,0,0,0,0,0,0,0,0,0,0,0,0,0,0,0,0,0,0,0,0,0,0,0,0,0,0,0,0,0,0,0,0,0,0,0,0,0,0,0,0,0,0,0,0,0,0,0,0,0,0,0,0,0,0,0],"id":1,"left_children":[1,3,5,7,9,11,13,15,17,19,21,23,25,27,29,31,33,35,37,39,41,43,45,47,49,51,53,55,57,59,61,63,65,67,69,71,73,75,77,79,81,83,85,87,89,91,93,95,97,99,101,103,-1,-1,-1,105,107,109,111,113,115,117,119,-1,-1,-1,-1,-1,-1,-1,-1,-1,-1,-1,-1,-1,-1,-1,-1,-1,-1,-1,-1,-1,-1,-1,-1,-1,-1,-1,-1,-1,-1,-1,-1,-1,-1,-1,-1,-1,-1,-1,-1,-1,-1,-1,-1,-1,-1,-1,-1,-1,-1,-1,-1,-1,-1,-1,-1,-1,-1],"loss_changes":[3.2442407E3,3.4764648E3,1.9389575E2,7.1191406E2,8.2025854E2,8.890796E1,1.0357318E2,1.09866455E2,3.3139545E2,4.733562E2,2.2193375E1,3.6168213E1,4.606195E0,7.409937E1,3.3374603E1,1.0682056E2,9.219647E1,2.6954813E2,3.53726E2,1.9769849E2,3.0448685E0,1.102278E1,1.1547089E0,2.3290527E1,1.1488441E1,3.4658794E0,2.5161524E0,3.1415695E1,3.4564934E1,2.160318E1,4.5404938E1,8.971826E1,6.1235794E1,5.8864746E0,7.967341E1,7.796115E1,3.2459467E2,4.1089127E1,1.4291925E2,1.0556421E2,1.2056747E1,2.379425E0,3.797989E-1,7.297635E0,6.019554E-1,3.2860198E0,5.6762695E-1,1.18029785E1,1.0213379E1,1.0968847E1,5.859066E0,3.1705408E0,0E0,0E0,0E0,3.8170486E1,1.2798027E1,9.578783E0,4.8995934E0,1.250116E1,4.6767755E0,2.0714676E1,1.0939826E1,0E0,0E0,0E0,0E0,0E0,0E0,0E0,0E0,0E0,0E0,0E0,0E0,0E0,0E0,0E0,0E0,0E0,0E0,0E0,0E0,0E0,0E0,0E0,0E0,0E0,0E0,0E0,0E0,0E0,0E0,0E0,0E0,0E0,0E0,0E0,0E0,0E0,0E0,0E0,0E0,0E0,0E0,0E0,0E0,0E0,0E0,0E0,0E0,0E0,0E0,0E0,0E0,0E0,0E0,0E0,0E0,0E0,0E0],"parents":[2147483647,0,0,1,1,2,2,3,3,4,4,5,5,6,6,7,7,8,8,9,9,10,10,11,11,12,12,13,13,14,14,15,15,16,16,17,17,18,18,19,19,20,20,21,21,22,22,23,23,24,24,25,25,26,26,27,27,28,28,29,29,30,30,31,31,32,32,33,33,34,34,35,35,36,36,37,37,38,38,39,39,40,40,41,41,42,42,43,43,44,44,45,45,46,46,47,47,48,48,49,49,50,50,51,51,55,55,56,56,57,57,58,58,59,59,60,60,61,61,62,62],"right_children":[2,4,6,8,10,12,14,16,18,20,22,24,26,28,30,32,34,36,38,40,42,44,46,48,50,52,54,56,58,60,62,64,66,68,70,72,74,76,78,80,82,84,86,88,90,92,94,96,98,100,102,104,-1,-1,-1,106,108,110,112,114,116,118,120,-1,-1,-1,-1,-1,-1,-1,-1,-1,-1,-1,-1,-1,-1,-1,-1,-1,-1,-1,-1,-1,-1,-1,-1,-1,-1,-1,-1,-1,-1,-1,-1,-1,-1,-1,-1,-1,-1,-1,-1,-1,-1,-1,-1,-1,-1,-1,-1,-1,-1,-1,-1,-1,-1,-1,-1,-1,-1],"split_conditions":[4.1430068E-1,5.4407036E-1,2.3023266E-2,1.2098979E-1,2.4286446E-1,3.962027E-3,5.310763E-2,1.8947463E-1,2.53964E-1,4.1922115E-2,2.5959975E-1,1.759446E-2,1.4031706E-2,8.232266E-2,1.7996117E-2,2.5569633E-1,1.06961936E-1,1.4163357E-1,1.2845112E-1,2.6073505E-3,3.6326885E-2,2.3592394E-3,1.4045219E-1,2.7494684E-1,3.6327273E-2,8.229249E-1,2.6057692E-2,1.3152382E-1,9.848292E-2,4.1387804E-2,1.605873E-1,8.9381987E-1,2.2573884E-1,4.293209E-1,3.5975433E-3,3.096599E-1,3.3340713E-1,4.1392583E-2,1.932231E-1,3.0096206E-1,3.869687E-2,5.7671275E-2,9.430604E-2,1.4127707E-1,4.205111E-2,2.0225924E-1,5.0239403E-2,3.0567193E-5,2.0479097E-3,4.6168838E-2,2.6301512E-2,2.9927418E-1,1.4198586E-1,-1.07946046E-1,3.2995945E-1,6.3141936E-1,5.36606E-3,1.5893955E-5,2.9332846E-1,4.938037E-4,1.0508158E-3,7.731539E-2,4.2602873E-1,-3.3034968E-1,1.4212094E-1,-3.953064E-2,-2.6380312E-1,-3.2275552E-1,-2.5633112E-1,-2.676104E-1,-5.229794E-2,-2.4613617E-1,-4.2296555E-2,4.6834823E-1,-9.662147E-2,-2.9409927E-1,4.8265386E-2,6.6260344E-1,-1.1237066E-1,5.150734E-1,3.3357388E-1,-5.4918434E-3,-4.175809E-1,-2.763758E-1,-1.3540985E-1,-3.4505823E-1,-1.00769795E-1,-1.8355268E-1,1.5688094E-1,-3.22615E-1,-4.101939E-2,-2.4594729E-1,1.5438254E-1,-1.326546E-1,-3.2028127E-1,5.4312557E-1,1.4547336E-1,2.8881526E-1,4.85305E-1,3.099288E-1,3.0419862E-2,-1.0252311E-1,5.035064E-1,-3.176042E-1,8.84219E-2,-1.7091451E-2,2.9635733E-1,3.3727157E-1,7.648153E-1,9.621919E-3,2.3379411E-1,-9.3887836E-2,-2.8319353E-1,6.0051864E-1,-2.3599447E-1,-3.189784E-1,2.0259295E-1,2.5660333E-1,5.190744E-1,-6.350221E-3,2.7895474E-1],"split_indices":[4,2,5,4,9,0,2,8,8,0,9,1,5,3,3,2,6,2,6,7,4,0,11,9,6,4,6,6,11,1,11,1,9,13,4,4,12,6,5,13,7,1,10,11,8,3,10,7,6,8,10,2,0,0,0,4,2,8,3,7,6,2,12,0,0,0,0,0,0,0,0,0,0,0,0,0,0,0,0,0,0,0,0,0,0,0,0,0,0,0,0,0,0,0,0,0,0,0,0,0,0,0,0,0,0,0,0,0,0,0,0,0,0,0,0,0,0,0,0,0,0],"split_type":[0,0,0,0,0,0,0,0,0,0,0,0,0,0,0,0,0,0,0,0,0,0,0,0,0,0,0,0,0,0,0,0,0,0,0,0,0,0,0,0,0,0,0,0,0,0,0,0,0,0,0,0,0,0,0,0,0,0,0,0,0,0,0,0,0,0,0,0,0,0,0,0,0,0,0,0,0,0,0,0,0,0,0,0,0,0,0,0,0,0,0,0,0,0,0,0,0,0,0,0,0,0,0,0,0,0,0,0,0,0,0,0,0,0,0,0,0,0,0,0,0],"sum_hessian":[9.052313E3,7.595879E3,1.4564347E3,6.036222E3,1.5596565E3,8.133921E2,6.4304266E2,4.4549062E3,1.5813158E3,1.3529023E3,2.0675404E2,7.9470807E2,1.868399E1,3.7852072E2,2.6452194E2,3.2027014E3,1.252205E3,1.2941288E3,2.8718704E2,1.2599344E3,9.2967995E1,3.5457912E1,1.7129613E2,7.164332E2,7.8274826E1,1.562498E1,3.0590096E0,2.1968115E2,1.5883957E2,8.798639E1,1.7653554E2,2.7582576E3,4.4444394E2,5.5536835E2,6.968366E2,8.937108E2,4.0041797E2,1.24775024E2,1.62412E2,1.22822E3,3.171438E1,5.0839966E1,4.2128025E1,2.548862E1,9.969294E0,1.2722173E1,1.5857394E2,6.0700854E2,1.09424706E2,5.5043846E1,2.3230982E1,1.4164124E1,1.4608564E0,1.5011016E0,1.5579078E0,1.8983165E2,2.9849503E1,7.267627E1,8.61633E1,8.369142E1,4.2949667E0,1.2317951E2,5.335602E1,2.7221152E3,3.614233E1,1.9634715E2,2.4809679E2,2.6107108E2,2.9429727E2,2.3107321E2,4.657634E2,6.6709143E2,2.266194E2,1.3986546E2,2.605525E2,6.3421238E1,6.1353786E1,1.3738712E2,2.50249E1,7.4145105E2,4.8676895E2,8.749756E0,2.2964624E1,2.790289E1,2.2937075E1,4.0527332E1,1.6006961E0,7.0589023E0,1.8429718E1,8.894895E0,1.0743991E0,1.1247073E1,1.4750998E0,3.4109323E0,1.5516302E2,5.993376E2,7.6709657E0,6.0979637E1,4.844507E1,3.5297054E1,1.9746792E1,1.2038376E0,2.2027143E1,1.2615633E1,1.5484905E0,4.594941E1,1.4388223E2,1.62032E1,1.3646302E1,2.7402788E1,4.5273483E1,7.168489E1,1.447841E1,8.254408E1,1.1473397E0,2.3085601E0,1.9864066E0,4.7113876E1,7.6065636E1,3.6230335E1,1.7125687E1],"tree_param":{"num_deleted":"0","num_feature":"14","num_nodes":"121","size_leaf_vector":"1"}},{"base_weights":[-1.00091495E-1,-3.234993E-1,8.379714E-1,-6.266439E-1,6.80104E-1,1.1700838E0,5.362285E-1,-8.586247E-1,-2.1158148E-1,9.3319774E-1,-4.3013427E-1,1.230528E0,1.26997875E-2,6.8231183E-1,-7.028194E-2,-9.562728E-1,-6.2809545E-1,-4.1959056E-1,3.850339E-1,1.0471603E0,-4.9610773E-1,5.4700084E-2,-9.553921E-1,1.2494777E0,-3.1434274E-1,2.9807347E-1,-7.8245574E-1,7.311629E-1,-6.777125E-1,-3.42581E-1,2.1148151E-1,-1.0219508E0,-4.4774425E-1,-8.1017315E-1,-3.241419E-1,-6.8023694E-1,1.6426817E-1,-5.4171693E-1,8.1451106E-1,1.0871581E0,-8.5806215E-1,-7.8624284E-1,5.3117925E-1,1.1912606E0,-1.3875614E-1,-5.4057163E-1,-9.8735857E-1,1.2997292E0,5.160619E-1,-3.458947E-1,8.2015646E-1,-9.9529463E-1,7.232653E-2,5.6878376E-1,1.2058141E0,-9.15006E-1,2.7339298E-1,-5.810738E-1,3.2444325E-1,6.769248E-1,-9.9870294E-2,-3.2105765E-1,-1.981536E-1,6.607365E-2,-2.5192004E-1,-2.9814795E-1,-1.9705097E-1,-9.071487E-3,-2.0873027E-1,-2.4785379E-1,-4.62889E-2,-1.7751428E-1,2.654703E-1,-2.166004E-1,6.4512244E-3,4.2833164E-1,3.4352427E-4,4.2561334E-1,2.655029E-1,-3.9217433E-1,2.58782E-1,-1.504256E-1,-3.2102668E-1,2.974602E-1,-1.605079E-1,4.279082E-1,-1.2341235E-1,1.5636452E-2,-2.3494248E-1,3.8313724E-2,-2.9462373E-1,-3.001497E-1,-1.0364606E-1,4.131845E-1,2.9322094E-1,2.4960291E-1,-2.9733337E-3,2.0859784E-1,-2.4419756E-1,3.6310416E-1,-9.070724E-3,-3.5022438E-1,-7.091629E-2,2.0544009E-1,-7.397262E-2,4.2957878E-1,1.4782374E-1,8.476518E-2,-3.224651E-1,-2.3378085E-1,3.2025146E-1,-2.9219735E-1,-1.0829677E-1,2.1344513E-1,-3.0630603E-1,1.3070479E-1,5.4015285E-1,-1.1779317E-1,1.9736147E-1],"categories":[],"categories_nodes":[],"categories_segments":[],"categories_sizes":[],"default_left":[1,1,0,1,0,0,0,1,0,0,0,0,0,0,0,1,0,0,0,0,0,0,0,0,0,0,0,0,0,0,0,1,0,0,0,0,0,0,0,0,0,0,0,0,0,0,0,0,0,0,0,0,0,0,0,0,0,0,0,0,0,0,0,0,0,0,0,0,0,0,0,0,0,0,0,0,0,0,0,0,0,0,0,0,0,0,0,0,0,0,0,0,0,0,0,0,0,0,0,0,0,0,0,0,0,0,0,0,0,0,0,0,0,0,0,0,0,0,0],"id":2,"left_children":[1,3,5,7,9,11,13,15,17,19,21,23,25,27,29,31,33,35,37,39,41,43,45,47,-1,49,51,53,55,57,59,61,63,65,67,69,71,73,75,77,79,81,83,85,87,89,91,93,95,97,99,101,-1,103,105,107,109,111,113,115,117,-1,-1,-1,-1,-1,-1,-1,-1,-1,-1,-1,-1,-1,-1,-1,-1,-1,-1,-1,-1,-1,-1,-1,-1,-1,-1,-1,-1,-1,-1,-1,-1,-1,-1,-1,-1,-1,-1,-1,-1,-1,-1,-1,-1,-1,-1,-1,-1,-1,-1,-1,-1,-1,-1,-1,-1,-1,-1],"loss_changes":[1.7099331E3,2.0051895E3,1.56651E2,4.8715784E2,4.3007935E2,5.2192078E1,7.3070114E1,7.247827E1,2.2552274E2,2.0340784E2,7.251873E1,3.1929443E1,8.867508E0,4.462976E1,1.2416026E1,7.5643555E1,5.3357788E1,2.0509453E2,1.8749942E2,8.88667E1,2.8034527E1,3.29088E1,1.2781448E0,2.5269165E1,0E0,9.941262E0,2.4892979E0,4.877469E1,5.565693E0,1.326451E1,1.1615393E1,3.4464355E1,6.889299E1,1.6391357E1,3.980424E1,7.136694E1,2.2744408E2,1.5188366E1,1.603875E2,7.4522705E1,1.9898151E1,5.33733E0,1.0839367E1,8.787447E0,1.5803568E1,3.6619503E0,7.141495E-1,1.5103149E1,7.7839622E0,7.177323E0,5.398919E0,8.660412E-1,0E0,4.5579056E1,2.5525024E1,3.9567223E0,5.406715E0,4.915308E0,1.2334254E1,7.9077406E0,1.1044025E1,0E0,0E0,0E0,0E0,0E0,0E0,0E0,0E0,0E0,0E0,0E0,0E0,0E0,0E0,0E0,0E0,0E0,0E0,0E0,0E0,0E0,0E0,0E0,0E0,0E0,0E0,0E0,0E0,0E0,0E0,0E0,0E0,0E0,0E0,0E0,0E0,0E0,0E0,0E0,0E0,0E0,0E0,0E0,0E0,0E0,0E0,0E0,0E0,0E0,0E0,0E0,0E0,0E0,0E0,0E0,0E0,0E0,0E0],"parents":[2147483647,0,0,1,1,2,2,3,3,4,4,5,5,6,6,7,7,8,8,9,9,10,10,11,11,12,12,13,13,14,14,15,15,16,16,17,17,18,18,19,19,20,20,21,21,22,22,23,23,25,25,26,26,27,27,28,28,29,29,30,30,31,31,32,32,33,33,34,34,35,35,36,36,37,37,38,38,39,39,40,40,41,41,42,42,43,43,44,44,45,45,46,46,47,47,48,48,49,49,50,50,51,51,53,53,54,54,55,55,56,56,57,57,58,58,59,59,60,60],"right_children":[2,4,6,8,10,12,14,16,18,20,22,24,26,28,30,32,34,36,38,40,42,44,46,48,-1,50,52,54,56,58,60,62,64,66,68,70,72,74,76,78,80,82,84,86,88,90,92,94,96,98,100,102,-1,104,106,108,110,112,114,116,118,-1,-1,-1,-1,-1,-1,-1,-1,-1,-1,-1,-1,-1,-1,-1,-1,-1,-1,-1,-1,-1,-1,-1,-1,-1,-1,-1,-1,-1,-1,-1,-1,-1,-1,-1,-1,-1,-1,-1,-1,-1,-1,-1,-1,-1,-1,-1,-1,-1,-1,-1,-1,-1,-1,-1,-1,-1,-1],"split_conditions":[3.8350374E-1,5.4407036E-1,1.7996117E-2,7.865488E-2,2.116108E-1,2.8635995E-5,1.3430907E-1,1.8947463E-1,2.1187668E-1,1.7808167E-2,2.5959975E-1,5.182918E-1,5.070883E-4,3.962027E-3,2.417531E-2,3.4462583E-1,2.315511E-1,1.8011479E-1,1.1255884E-1,3.9579447E-2,8.762839E-1,2.6817122E-1,1.4045219E-1,1.759446E-2,-3.1434274E-1,9.798008E-4,7.707851E-2,1.038842E-1,1.6865218E-1,5.668766E-1,1.19724214E-1,2.5075012E-1,9.927692E-2,4.2891945E-3,6.041333E-2,2.9679224E-1,2.6900655E-1,7.374262E-2,1.0092145E-1,2.0775633E-1,7.871925E-2,3.6326885E-2,4.7720492E-2,2.5209526E-3,5.538807E-3,3.522934E-4,2.9634917E-1,4.8722424E-2,4.9058266E-2,1.5576317E-2,1.3392244E-1,1.4770472E-1,7.232653E-2,2.9332846E-1,1.5948245E-1,1.5744989E-1,1.24859605E-2,4.6369396E-2,4.5467126E-1,4.9059287E-2,3.35842E-1,-3.2105765E-1,-1.981536E-1,6.607365E-2,-2.5192004E-1,-2.9814795E-1,-1.9705097E-1,-9.071487E-3,-2.0873027E-1,-2.4785379E-1,-4.62889E-2,-1.7751428E-1,2.654703E-1,-2.166004E-1,6.4512244E-3,4.2833164E-1,3.4352427E-4,4.2561334E-1,2.655029E-1,-3.9217433E-1,2.58782E-1,-1.504256E-1,-3.2102668E-1,2.974602E-1,-1.605079E-1,4.279082E-1,-1.2341235E-1,1.5636452E-2,-2.3494248E-1,3.8313724E-2,-2.9462373E-1,-3.001497E-1,-1.0364606E-1,4.131845E-1,2.9322094E-1,2.4960291E-1,-2.9733337E-3,2.0859784E-1,-2.4419756E-1,3.6310416E-1,-9.070724E-3,-3.5022438E-1,-7.091629E-2,2.0544009E-1,-7.397262E-2,4.2957878E-1,1.4782374E-1,8.476518E-2,-3.224651E-1,-2.3378085E-1,3.2025146E-1,-2.9219735E-1,-1.0829677E-1,2.1344513E-1,-3.0630603E-1,1.3070479E-1,5.4015285E-1,-1.1779317E-1,1.9736147E-1],"split_indices":[4,2,3,4,9,7,5,8,8,0,9,8,0,0,2,1,6,2,6,5,2,12,11,1,0,6,5,2,3,4,11,2,11,4,10,4,3,6,5,13,3,4,0,0,0,8,1,5,8,8,11,11,0,3,11,9,5,6,13,10,9,0,0,0,0,0,0,0,0,0,0,0,0,0,0,0,0,0,0,0,0,0,0,0,0,0,0,0,0,0,0,0,0,0,0,0,0,0,0,0,0,0,0,0,0,0,0,0,0,0,0,0,0,0,0,0,0,0,0],"split_type":[0,0,0,0,0,0,0,0,0,0,0,0,0,0,0,0,0,0,0,0,0,0,0,0,0,0,0,0,0,0,0,0,0,0,0,0,0,0,0,0,0,0,0,0,0,0,0,0,0,0,0,0,0,0,0,0,0,0,0,0,0,0,0,0,0,0,0,0,0,0,0,0,0,0,0,0,0,0,0,0,0,0,0,0,0,0,0,0,0,0,0,0,0,0,0,0,0,0,0,0,0,0,0,0,0,0,0,0,0,0,0,0,0,0,0,0,0,0,0],"sum_hessian":[8.1569297E3,6.588481E3,1.5684487E3,5.060347E3,1.5281335E3,7.452805E2,8.231682E2,3.2454038E3,1.8149437E3,1.2445753E3,2.8355823E2,7.0823004E2,3.7050472E1,6.632852E2,1.5988304E2,2.277533E3,9.6787067E2,1.34597E3,4.6897372E2,1.1529174E3,9.165795E1,1.4791891E2,1.3563931E2,7.028359E2,5.3941274E0,2.7725275E1,9.325196E0,6.407329E2,2.2552258E1,8.1197296E1,7.868574E1,2.0161332E3,2.6139987E2,6.04244E2,3.636266E2,9.3043835E2,4.155316E2,1.484273E2,3.2054642E2,1.1296316E3,2.3285831E1,7.1655136E1,2.0002813E1,2.0765175E1,1.2715374E2,1.0986097E1,1.24653206E2,6.57045E2,4.5790936E1,1.25647E1,1.5160576E1,7.7427464E0,1.58245E0,4.7904797E2,1.6168497E2,1.8079514E1,4.4727445E0,5.9906677E1,2.1290623E1,3.1067875E1,4.7617863E1,1.7769968E3,2.3913629E2,9.682992E1,1.6456996E2,2.7244806E2,3.31796E2,2.036497E2,1.599769E2,7.278873E2,2.02551E2,2.0287927E2,2.1265233E2,1.1222327E2,3.620404E1,1.8232318E2,1.3822325E2,4.2558755E2,7.04044E2,1.8655918E1,4.629914E0,3.714682E1,3.4508316E1,1.4019611E1,5.9832015E0,1.820462E1,2.560554E0,9.880513E1,2.8348604E1,4.653342E0,6.3327556E0,1.21604996E2,3.0482159E0,5.269796E2,1.3006534E2,2.8243465E1,1.754747E1,3.7462425E0,8.818457E0,1.010209E1,5.058486E0,5.8725653E0,1.8701807E0,4.195157E2,5.953229E1,1.2199273E2,3.9692234E1,2.0390208E0,1.6040491E1,1.9313145E0,2.5414298E0,2.0278288E1,3.9628387E1,1.690024E1,4.390382E0,2.6718885E1,4.348989E0,3.4694534E1,1.2923328E1],"tree_param":{"num_deleted":"0","num_feature":"14","num_nodes":"119","size_leaf_vector":"1"}},{"base_weights":[-9.376119E-2,-3.0587494E-1,5.4251844E-1,-6.001507E-1,4.9708942E-1,8.8507193E-1,2.9852298E-1,-7.937167E-1,-2.6636037E-1,8.133486E-1,-1.20754614E-1,9.5664567E-1,-1.8865755E-1,4.5612305E-1,-3.2021564E-1,-9.133152E-1,-5.4049575E-1,-4.5558047E-1,2.0238104E-1,8.9947814E-1,-2.2660832E-1,1.22273E-1,-8.829502E-1,5.598031E-1,1.0805191E0,1.2962548E-1,-9.352108E-1,5.144487E-1,-7.4117863E-1,-5.580513E-1,3.414036E-2,-9.896035E-1,-3.2509825E-1,-7.3777914E-1,-2.4720822E-1,-6.961018E-1,4.214602E-2,-1.440621E-1,7.969674E-1,9.2277336E-1,-1.2407672E0,2.3884816E-1,-1.0876051E0,2.3312682E-1,-8.384924E-1,-4.9519137E-1,-9.3513024E-1,1.226352E0,3.3784834E-1,1.1118118E0,-7.633609E-1,4.9411127E-1,-3.3009565E-1,-3.6442178E-1,-2.7333266E-1,3.39512E-1,9.558357E-1,-2.1375588E-1,-1.0373244E0,-7.134351E-1,-2.1552797E-2,4.769864E-1,-3.030415E-1,-3.1257808E-1,-2.1508394E-1,4.8585635E-2,-2.3624541E-1,-1.9229181E-1,-3.152553E-1,-1.7580397E-2,-2.249797E-1,-2.8589502E-1,-1.6793579E-1,2.1009535E-1,-2.1911669E-1,2.2269757E-3,-2.8151926E-1,3.8372114E-1,4.6717975E-2,3.7478966E-1,2.35428E-1,-3.995225E-1,-7.057923E-2,-1.568275E-1,2.499537E-1,-3.4934258E-1,1.3028002E-1,-5.786169E-2,1.2099191E-1,-1.3887446E-2,-2.7619243E-1,-1.9335909E-1,2.6340857E-1,-1.5458748E-2,-2.8539962E-1,3.8747287E-1,-1.2472954E-1,1.5398037E-1,-1.280031E-1,2.857382E-1,4.140994E-1,-2.9657423E-1,1.265253E-1,2.4726287E-1,-1.0395261E-1,1.0398669E-1,-1.8668523E-1,-1.698211E-1,1.1712765E-1,1.6663238E-1,1.1885035E-2,4.0618792E-1,1.4318933E-1,1.1385026E-1,-2.2936332E-1,-3.3320972E-1,7.182879E-2,-2.3782392E-1,-7.864879E-3,4.0287636E-2,-2.8750587E-1,8.840458E-2,5.605349E-1,4.002754E-1,-1.673132E-1],"categories":[],"categories_nodes":[],"categories_segments":[],"categories_sizes":[],"default_left":[1,1,0,1,0,0,0,1,0,0,0,0,0,0,0,1,0,0,0,0,0,0,0,0,0,0,0,0,0,0,0,1,0,0,0,0,0,0,0,0,0,0,0,0,0,0,0,0,0,0,0,0,0,0,0,0,0,0,0,0,0,0,0,0,0,0,0,0,0,0,0,0,0,0,0,0,0,0,0,0,0,0,0,0,0,0,0,0,0,0,0,0,0,0,0,0,0,0,0,0,0,0,0,0,0,0,0,0,0,0,0,0,0,0,0,0,0,0,0,0,0,0,0,0,0],"id":3,"left_children":[1,3,5,7,9,11,13,15,17,19,21,23,25,27,29,31,33,35,37,39,41,43,45,47,49,51,53,55,57,59,61,63,65,67,69,71,73,75,77,79,81,83,85,87,89,91,93,95,97,99,101,103,105,-1,107,109,111,113,115,117,119,121,123,-1,-1,-1,-1,-1,-1,-1,-1,-1,-1,-1,-1,-1,-1,-1,-1,-1,-1,-1,-1,-1,-1,-1,-1,-1,-1,-1,-1,-1,-1,-1,-1,-1,-1,-1,-1,-1,-1,-1,-1,-1,-1,-1,-1,-1,-1,-1,-1,-1,-1,-1,-1,-1,-1,-1,-1,-1,-1,-1,-1,-1,-1],"loss_changes":[9.8484625E2,1.2933942E3,1.5222742E2,2.5856592E2,2.8698892E2,5.8467285E1,1.0419512E2,7.626587E1,1.3061717E2,8.7200806E1,9.234917E1,3.4356873E1,1.1582062E1,5.9797394E1,1.8324186E1,7.6864136E1,4.7004837E1,1.2557379E2,8.7435394E1,4.5875793E1,3.0351166E1,4.05028E1,1.9753113E0,2.492323E1,3.206122E1,5.976508E0,2.3578234E0,6.2365784E1,6.0153713E0,1.0823898E1,1.3310558E1,2.0967651E1,4.493429E1,1.4087982E1,3.119548E1,2.4226837E1,1.7471579E2,3.233855E1,4.8093918E1,3.904126E1,6.093559E-1,2.2867945E1,3.6091232E0,2.4733019E1,2.519329E0,3.9331203E0,1.4554901E0,5.078594E0,1.7635124E1,2.146283E1,2.9846578E0,5.7665105E0,3.3679218E0,0E0,1.3105371E0,3.7730713E1,4.3153076E1,5.39365E0,2.637312E0,5.4728355E0,4.542477E0,9.21648E0,2.1871996E1,0E0,0E0,0E0,0E0,0E0,0E0,0E0,0E0,0E0,0E0,0E0,0E0,0E0,0E0,0E0,0E0,0E0,0E0,0E0,0E0,0E0,0E0,0E0,0E0,0E0,0E0,0E0,0E0,0E0,0E0,0E0,0E0,0E0,0E0,0E0,0E0,0E0,0E0,0E0,0E0,0E0,0E0,0E0,0E0,0E0,0E0,0E0,0E0,0E0,0E0,0E0,0E0,0E0,0E0,0E0,0E0,0E0,0E0,0E0,0E0,0E0,0E0],"parents":[2147483647,0,0,1,1,2,2,3,3,4,4,5,5,6,6,7,7,8,8,9,9,10,10,11,11,12,12,13,13,14,14,15,15,16,16,17,17,18,18,19,19,20,20,21,21,22,22,23,23,24,24,25,25,26,26,27,27,28,28,29,29,30,30,31,31,32,32,33,33,34,34,35,35,36,36,37,37,38,38,39,39,40,40,41,41,42,42,43,43,44,44,45,45,46,46,47,47,48,48,49,49,50,50,51,51,52,52,54,54,55,55,56,56,57,57,58,58,59,59,60,60,61,61,62,62],"right_children":[2,4,6,8,10,12,14,16,18,20,22,24,26,28,30,32,34,36,38,40,42,44,46,48,50,52,54,56,58,60,62,64,66,68,70,72,74,76,78,80,82,84,86,88,90,92,94,96,98,100,102,104,106,-1,108,110,112,114,116,118,120,122,124,-1,-1,-1,-1,-1,-1,-1,-1,-1,-1,-1,-1,-1,-1,-1,-1,-1,-1,-1,-1,-1,-1,-1,-1,-1,-1,-1,-1,-1,-1,-1,-1,-1,-1,-1,-1,-1,-1,-1,-1,-1,-1,-1,-1,-1,-1,-1,-1,-1,-1,-1,-1,-1,-1,-1,-1,-1,-1,-1,-1,-1,-1],"split_conditions":[2.9679224E-1,5.100822E-1,1.7120257E-2,6.988332E-2,1.6510777E-1,9.155304E-6,1.6597272E-1,1.8947463E-1,2.3192008E-1,7.669136E-3,2.5959975E-1,6.805661E-4,6.0012954E-4,3.962027E-3,2.6827909E-2,3.8216463E-1,2.315511E-1,2.062243E-1,2.4665326E-1,3.869687E-2,4.040855E-2,4.064038E-2,1.5347801E-1,1.09936975E-1,5.080703E-3,1.8269569E-2,5.4421306E-1,1.038842E-1,3.3702243E-2,4.8162308E-1,1.0517431E-1,1.6796805E-1,1.1625807E-4,2.4667753E-1,2.8845653E-1,5.5425312E-2,2.3989435E-1,2.2779979E-1,6.847882E-2,1.5435494E-1,4.0797076E-1,8.3408386E-1,1.627673E-1,5.2654438E-2,6.748254E-5,2.744678E-1,5.0239403E-2,1.4572839E-2,1.9680908E-1,4.3339707E-2,6.9450526E-3,1.7448195E-3,2.0890242E-1,-3.6442178E-1,7.707851E-2,1.2431327E-1,3.4972125E-1,2.3743963E-2,4.3202546E-1,1.4245307E-1,3.1590295E-1,1.4223485E-1,3.8703093E-1,-3.1257808E-1,-2.1508394E-1,4.8585635E-2,-2.3624541E-1,-1.9229181E-1,-3.152553E-1,-1.7580397E-2,-2.249797E-1,-2.8589502E-1,-1.6793579E-1,2.1009535E-1,-2.1911669E-1,2.2269757E-3,-2.8151926E-1,3.8372114E-1,4.6717975E-2,3.7478966E-1,2.35428E-1,-3.995225E-1,-7.057923E-2,-1.568275E-1,2.499537E-1,-3.4934258E-1,1.3028002E-1,-5.786169E-2,1.2099191E-1,-1.3887446E-2,-2.7619243E-1,-1.9335909E-1,2.6340857E-1,-1.5458748E-2,-2.8539962E-1,3.8747287E-1,-1.2472954E-1,1.5398037E-1,-1.280031E-1,2.857382E-1,4.140994E-1,-2.9657423E-1,1.265253E-1,2.4726287E-1,-1.0395261E-1,1.0398669E-1,-1.8668523E-1,-1.698211E-1,1.1712765E-1,1.6663238E-1,1.1885035E-2,4.0618792E-1,1.4318933E-1,1.1385026E-1,-2.2936332E-1,-3.3320972E-1,7.182879E-2,-2.3782392E-1,-7.864879E-3,4.0287636E-2,-2.8750587E-1,8.840458E-2,5.605349E-1,4.002754E-1,-1.673132E-1],"split_indices":[4,2,3,4,9,7,5,8,8,0,9,2,0,0,2,1,6,2,6,7,4,0,11,12,0,5,4,2,8,4,3,2,7,5,9,5,9,5,5,13,13,2,1,1,4,3,10,3,5,6,3,3,9,0,5,3,12,0,12,8,5,6,13,0,0,0,0,0,0,0,0,0,0,0,0,0,0,0,0,0,0,0,0,0,0,0,0,0,0,0,0,0,0,0,0,0,0,0,0,0,0,0,0,0,0,0,0,0,0,0,0,0,0,0,0,0,0,0,0,0,0,0,0,0,0],"split_type":[0,0,0,0,0,0,0,0,0,0,0,0,0,0,0,0,0,0,0,0,0,0,0,0,0,0,0,0,0,0,0,0,0,0,0,0,0,0,0,0,0,0,0,0,0,0,0,0,0,0,0,0,0,0,0,0,0,0,0,0,0,0,0,0,0,0,0,0,0,0,0,0,0,0,0,0,0,0,0,0,0,0,0,0,0,0,0,0,0,0,0,0,0,0,0,0,0,0,0,0,0,0,0,0,0,0,0,0,0,0,0,0,0,0,0,0,0,0,0,0,0,0,0,0,0],"sum_hessian":[7.2948926E3,5.4714263E3,1.8234661E3,4.0041946E3,1.4672316E3,7.574413E2,1.0660248E3,2.533584E3,1.4706108E3,9.702619E2,4.9696967E2,7.1020856E2,4.7232742E1,8.4982666E2,2.1619815E2,1.7190532E3,8.145306E2,1.0477047E3,4.2290613E2,8.961754E2,7.408647E1,3.7745648E2,1.1951318E2,1.7026482E2,5.399437E2,3.3694088E1,1.3538656E1,8.108949E2,3.8931797E1,1.2902481E2,8.717333E1,1.5210939E3,1.9795944E2,4.860606E2,3.2846997E2,7.0609357E2,3.416111E2,2.6769058E2,1.5521553E2,8.8708887E2,9.086546E0,4.8558334E1,2.5528135E1,3.3908942E2,3.8367035E1,1.5419363E1,1.0409383E2,4.1402977E1,1.2886185E2,5.313236E2,8.6201515E0,1.8751957E1,1.4942129E1,8.931402E0,4.6072545E0,5.819983E2,2.2889658E2,1.4618563E1,2.4313234E1,9.979253E1,2.9232286E1,3.7503098E1,4.967024E1,1.2738237E3,2.4727016E2,9.6724915E1,1.0123452E2,3.735888E2,1.124718E2,2.396697E2,8.880027E1,2.4271536E2,4.633782E2,1.8450934E2,1.5710179E2,2.2564848E2,4.2042095E1,8.803423E1,6.7181305E1,2.6115967E2,6.259292E2,8.035106E0,1.051441E0,2.1336744E1,2.722159E1,2.452425E1,1.003885E0,9.6755196E1,2.4233423E2,3.751649E0,3.4615387E1,1.4385563E1,1.0338004E0,1.9495757E0,1.0214425E2,4.0026604E1,1.3763711E0,1.0507999E2,2.3781853E1,3.3629724E2,1.9502635E2,7.382926E0,1.2372254E0,1.3478633E1,5.273325E0,4.449846E0,1.0492283E1,3.2993248E0,1.3079296E0,3.378726E2,2.4412573E2,1.23947754E2,1.0494882E2,7.1876736E0,7.4308887E0,2.311489E1,1.1983458E0,8.932953E1,1.0462998E1,2.5797323E1,3.4349632E0,3.4230164E1,3.2729342E0,6.11529E0,4.3554947E1],"tree_param":{"num_deleted":"0","num_feature":"14","num_nodes":"125","size_leaf_vector":"1"}},{"base_weights":[-8.498495E-2,1.3803137E-2,-9.9001837E-1,-4.0388736E-1,2.203632E-1,-1.027638E0,-5.598688E-1,-5.2422005E-1,3.3131358E-1,4.1188115E-1,-6.1094767E-1,-1.0309733E0,1.3002656E-1,1.5980788E-2,-7.724044E-1,-8.248517E-1,-3.1016478E-1,7.710332E-1,1.6353743E-1,6.144015E-1,-6.8259016E-2,-3.566563E-1,-9.257758E-1,-3.1521758E-1,-7.734298E-1,-5.7495314E-1,1.366854E0,3.9356023E-2,-8.281153E-1,-8.574627E-1,8.338794E-1,-7.724472E-1,-1.431579E-1,1.0925994E0,8.835747E-2,3.5022745E-1,-1.1941989E-1,6.816793E-1,-7.745943E-1,3.8954073E-1,-3.0056497E-1,-5.1292248E-2,-6.9250166E-1,-9.4347984E-1,5.1997846E-1,-1.0074177E0,-2.651163E-1,-8.861083E-1,2.73124E-1,6.460578E-1,-1.10098146E-1,-1.9137473E-1,2.4826609E-1,-3.5574397E-1,-9.256804E-1,-2.8242165E-1,-1.5914167E-1,6.4788187E-1,-3.2315442E-1,-2.6812574E-1,-1.7945752E-1,-2.4000104E-1,-4.1049286E-3,3.404324E-1,5.722828E-2,-3.4043256E-2,4.165568E-1,5.4838676E-2,2.1841274E-1,-1.8137896E-1,4.1324873E-2,2.1898453E-1,-8.208429E-2,-1.22154534E-1,-3.0252716E-1,-6.2264767E-3,2.9730353E-1,-1.6869114E-1,7.783812E-3,-8.151903E-2,1.0352774E-1,-2.1771605E-1,1.8925785E-1,-2.3275086E-1,-3.1759152E-1,3.0363202E-1,-1.2845416E-1,-3.3006862E-1,2.6029727E-1,9.476139E-2,-2.3824152E-1,6.490932E-2,-3.1345418E-1,-2.2273292E-1,9.443774E-2,-2.8643727E-1,-1.5529438E-2],"categories":[],"categories_nodes":[],"categories_segments":[],"categories_sizes":[],"default_left":[0,0,1,0,0,1,0,0,0,0,0,1,0,0,0,0,0,0,0,0,0,0,0,0,0,0,0,0,0,0,0,0,0,0,0,0,0,0,0,0,0,0,0,0,0,0,0,0,0,0,0,0,0,0,0,0,0,0,0,0,0,0,0,0,0,0,0,0,0,0,0,0,0,0,0,0,0,0,0,0,0,0,0,0,0,0,0,0,0,0,0,0,0,0,0,0,0],"id":4,"left_children":[1,3,5,7,9,11,13,15,17,19,21,23,-1,25,27,29,31,33,35,37,39,41,43,-1,45,47,49,51,53,55,57,59,61,63,65,67,69,71,73,75,77,79,81,83,85,87,89,91,-1,-1,-1,-1,-1,93,95,-1,-1,-1,-1,-1,-1,-1,-1,-1,-1,-1,-1,-1,-1,-1,-1,-1,-1,-1,-1,-1,-1,-1,-1,-1,-1,-1,-1,-1,-1,-1,-1,-1,-1,-1,-1,-1,-1,-1,-1,-1,-1],"loss_changes":[5.849298E2,5.0907535E2,9.843445E0,1.7290094E2,6.288091E2,3.3261719E0,6.618532E0,1.07738495E2,2.0178381E1,3.121106E2,5.888324E1,2.1877441E0,0E0,1.318398E1,1.8164997E0,3.8436523E1,7.569187E1,1.6530567E1,1.063237E1,2.1147241E2,1.0146703E2,4.209198E1,8.93338E0,0E0,5.1806164E0,6.1257396E0,7.640916E0,2.3898592E0,1.3739815E0,1.8286102E1,3.7675823E1,4.968521E0,6.143389E1,1.7385483E0,6.807492E0,7.5238705E0,1.0119957E1,9.9503784E1,8.588982E0,7.9295006E1,5.4090176E1,1.8987837E1,9.054039E0,5.476471E0,2.596148E0,6.350767E0,5.1055093E0,1.9799795E0,0E0,0E0,0E0,0E0,0E0,2.295351E0,7.1396255E-1,0E0,0E0,0E0,0E0,0E0,0E0,0E0,0E0,0E0,0E0,0E0,0E0,0E0,0E0,0E0,0E0,0E0,0E0,0E0,0E0,0E0,0E0,0E0,0E0,0E0,0E0,0E0,0E0,0E0,0E0,0E0,0E0,0E0,0E0,0E0,0E0,0E0,0E0,0E0,0E0,0E0,0E0],"parents":[2147483647,0,0,1,1,2,2,3,3,4,4,5,5,6,6,7,7,8,8,9,9,10,10,11,11,13,13,14,14,15,15,16,16,17,17,18,18,19,19,20,20,21,21,22,22,24,24,25,25,26,26,27,27,28,28,29,29,30,30,31,31,32,32,33,33,34,34,35,35,36,36,37,37,38,38,39,39,40,40,41,41,42,42,43,43,44,44,45,45,46,46,47,47,53,53,54,54],"right_children":[2,4,6,8,10,12,14,16,18,20,22,24,-1,26,28,30,32,34,36,38,40,42,44,-1,46,48,50,52,54,56,58,60,62,64,66,68,70,72,74,76,78,80,82,84,86,88,90,92,-1,-1,-1,-1,-1,94,96,-1,-1,-1,-1,-1,-1,-1,-1,-1,-1,-1,-1,-1,-1,-1,-1,-1,-1,-1,-1,-1,-1,-1,-1,-1,-1,-1,-1,-1,-1,-1,-1,-1,-1,-1,-1,-1,-1,-1,-1,-1,-1],"split_conditions":[5.7101053E-1,2.8955783E-3,1.8011479E-1,4.8162308E-1,1.1226421E-5,2.0530146E-1,1.2109512E-1,1.8947463E-1,1.4256589E-5,2.3763226E-1,2.430098E-3,1.52569E-1,1.3002656E-1,1.4752477E-3,1.842712E-1,9.3794054E-1,3.2594604E-3,4.5181084E-2,3.1153092E-1,2.7901062E-1,3.3173136E-2,3.710637E-3,8.969314E-1,-3.1521758E-1,1.5772986E-3,3.1305367E-1,6.7643514E-3,6.287231E-3,5.5465687E-5,2.231786E-1,1.1310875E-1,7.525246E-2,2.8080937E-2,2.0143661E-1,2.3673365E-1,2.0544967E-2,8.071328E-2,1.234776E-2,4.7395128E-1,4.5530234E-2,3.0372006E-1,2.603345E-1,8.9168614E-1,2.7750757E-2,3.869687E-2,8.19898E-2,3.1131115E-2,1.7381553E-2,2.73124E-1,6.460578E-1,-1.10098146E-1,-1.9137473E-1,2.4826609E-1,3.4758562E-1,1.2381455E-4,-2.8242165E-1,-1.5914167E-1,6.4788187E-1,-3.2315442E-1,-2.6812574E-1,-1.7945752E-1,-2.4000104E-1,-4.1049286E-3,3.404324E-1,5.722828E-2,-3.4043256E-2,4.165568E-1,5.4838676E-2,2.1841274E-1,-1.8137896E-1,4.1324873E-2,2.1898453E-1,-8.208429E-2,-1.22154534E-1,-3.0252716E-1,-6.2264767E-3,2.9730353E-1,-1.6869114E-1,7.783812E-3,-8.151903E-2,1.0352774E-1,-2.1771605E-1,1.8925785E-1,-2.3275086E-1,-3.1759152E-1,3.0363202E-1,-1.2845416E-1,-3.3006862E-1,2.6029727E-1,9.476139E-2,-2.3824152E-1,6.490932E-2,-3.1345418E-1,-2.2273292E-1,9.443774E-2,-2.8643727E-1,-1.5529438E-2],"split_indices":[3,2,2,4,7,6,9,8,3,9,7,4,0,6,2,1,4,8,12,5,3,0,2,0,6,2,5,1,1,4,9,5,6,6,6,6,10,0,5,6,4,4,2,7,7,5,5,11,0,0,0,0,0,12,7,0,0,0,0,0,0,0,0,0,0,0,0,0,0,0,0,0,0,0,0,0,0,0,0,0,0,0,0,0,0,0,0,0,0,0,0,0,0,0,0,0,0],"split_type":[0,0,0,0,0,0,0,0,0,0,0,0,0,0,0,0,0,0,0,0,0,0,0,0,0,0,0,0,0,0,0,0,0,0,0,0,0,0,0,0,0,0,0,0,0,0,0,0,0,0,0,0,0,0,0,0,0,0,0,0,0,0,0,0,0,0,0,0,0,0,0,0,0,0,0,0,0,0,0,0,0,0,0,0,0,0,0,0,0,0,0,0,0,0,0,0,0],"sum_hessian":[6.54121E3,5.8983643E3,6.4284576E2,1.9514106E3,3.9469536E3,5.898686E2,5.2977196E1,1.677187E3,2.7422357E2,3.2083228E3,7.38631E2,5.888188E2,1.049793E0,1.4531085E1,3.844611E1,6.963455E2,9.808415E2,7.474113E1,1.9948244E2,2.2563342E3,9.519885E2,4.0977917E2,3.288518E2,5.440164E2,4.4802387E1,1.0508548E1,4.022537E0,2.4879475E0,3.595816E1,6.833929E2,1.2952602E1,2.593431E2,7.214984E2,5.0400238E1,2.4340889E1,1.20042725E2,7.943972E1,2.1525806E3,1.0375369E2,3.2023407E2,6.3175446E2,2.1523322E2,1.9454596E2,3.2521677E2,3.6350417E0,3.0007425E1,1.479496E1,9.022047E0,1.4865007E0,2.6005704E0,1.4219667E0,1.4406824E0,1.0472649E0,6.950902E0,2.9007261E1,5.4229877E2,1.4109416E2,7.570674E0,5.381928E0,1.5046814E2,1.0887497E2,1.1794854E2,6.0354987E2,4.790178E1,2.498457E0,2.1860094E1,2.4807956E0,8.420874E1,3.5833984E1,2.7052128E1,5.238759E1,2.0492708E3,1.0330971E2,4.141708E1,6.2336613E1,1.9094543E2,1.2928865E2,3.5025763E2,2.814968E2,1.3851602E2,7.671719E1,1.9022269E2,4.323287E0,1.3558055E2,1.8963623E2,2.348594E0,1.2864479E0,2.8985939E1,1.0214877E0,7.24319E0,7.55177E0,1.0898448E0,7.9322023E0,4.3404956E0,2.6104062E0,2.7982607E1,1.0246544E0],"tree_param":{"num_deleted":"0","num_feature":"14","num_nodes":"97","size_leaf_vector":"1"}},{"base_weights":[-7.643041E-2,2.931688E-3,-9.510071E-1,1.026243E-1,-6.1900854E-1,-6.367239E-1,-1.0298094E0,1.8316011E-1,-6.870817E-1,-3.770407E-1,-9.75853E-1,-8.235551E-1,-4.1890055E-1,-3.1042615E-1,-2.0418918E-1,2.4502687E-1,-8.7343657E-1,-3.3798313E-1,-8.5824215E-1,-2.2744416E-1,-9.8507255E-1,-1.0094309E0,-2.8912362E-2,1.2475834E-2,-8.610774E-1,8.280776E-2,-7.2887033E-1,-1.9219102E-1,1.3236257E-1,3.5790855E-1,-1.774144E-1,-9.01183E-1,9.698897E-1,2.5055673E-2,-7.5322366E-1,-8.8403034E-1,7.7073194E-2,1.25154E-3,-4.9020702E-1,-3.012356E-1,-1.7315294E-1,-1.0292933E0,-2.671697E-1,-8.03581E-1,1.1926728E0,-1.720683E-1,1.661596E-1,-9.514534E-1,-4.456746E-1,9.8483205E-1,-1.684145E-1,2.4884005E-1,-8.160306E-1,1.1899648E-1,-1.6987759E-1,-1.2155042E-1,5.860634E-2,-2.8168058E-1,1.6124532E-1,6.941246E-1,-1.927448E-1,1.1311495E-1,-1.898452E-1,1.9147381E-1,-2.372061E-1,-2.8104085E-1,-1.8724301E-1,-1.867731E-1,2.9660484E-1,2.241003E-1,-3.161493E-2,-1.7953525E-1,7.358228E-2,-1.891886E-1,1.272359E-1,-3.0963507E-1,-1.024869E-1,-2.375631E-1,5.850681E-1,-2.7470958E-1,-1.0723099E-2,5.50131E-1,-1.6533399E-1,-3.0434006E-1,-1.3413458E-1,2.5468307E-2,-2.6539367E-1,4.818816E-1,-1.6349252E-1,-1.5522878E-1,2.85652E-1,-2.6307184E-1,1.16545714E-1],"categories":[],"categories_nodes":[],"categories_segments":[],"categories_sizes":[],"default_left":[0,0,0,0,0,0,1,0,0,0,0,0,0,0,0,0,0,0,0,0,0,0,0,0,0,0,0,0,0,0,0,0,0,0,0,0,0,0,0,0,0,0,0,0,0,0,0,0,0,0,0,0,0,0,0,0,0,0,0,0,0,0,0,0,0,0,0,0,0,0,0,0,0,0,0,0,0,0,0,0,0,0,0,0,0,0,0,0,0,0,0,0,0],"id":5,"left_children":[1,3,5,7,9,11,13,15,17,19,21,23,25,-1,27,29,31,33,35,37,39,41,43,45,47,49,51,-1,-1,53,55,57,59,61,63,65,67,69,71,-1,73,75,77,79,81,-1,-1,83,85,87,89,-1,91,-1,-1,-1,-1,-1,-1,-1,-1,-1,-1,-1,-1,-1,-1,-1,-1,-1,-1,-1,-1,-1,-1,-1,-1,-1,-1,-1,-1,-1,-1,-1,-1,-1,-1,-1,-1,-1,-1,-1,-1],"loss_changes":[4.1358545E2,3.3884488E2,1.1621674E1,2.99679E2,6.482086E1,3.8060112E0,1.4000549E0,2.79656E2,2.5767227E1,4.0847664E1,9.65097E0,1.7006531E0,7.7006207E0,0E0,1.2954996E0,1.9267679E2,1.2979248E1,2.1895472E1,7.1105347E0,2.1855188E1,1.2002182E0,4.0592957E0,1.1798692E1,1.3645716E0,1.5120583E0,4.620923E0,4.815359E0,0E0,0E0,1.1437393E2,7.244769E1,1.31970215E1,1.0135147E1,1.8392244E1,4.0351143E0,3.3133087E0,6.1988745E0,1.5620861E1,1.3620045E1,0E0,1.1541238E0,2.0266724E-1,1.203016E1,6.221671E-1,6.430196E0,0E0,0E0,8.644905E-1,2.6594572E0,5.0856624E0,6.840666E0,0E0,2.4934578E0,0E0,0E0,0E0,0E0,0E0,0E0,0E0,0E0,0E0,0E0,0E0,0E0,0E0,0E0,0E0,0E0,0E0,0E0,0E0,0E0,0E0,0E0,0E0,0E0,0E0,0E0,0E0,0E0,0E0,0E0,0E0,0E0,0E0,0E0,0E0,0E0,0E0,0E0,0E0,0E0],"parents":[2147483647,0,0,1,1,2,2,3,3,4,4,5,5,6,6,7,7,8,8,9,9,10,10,11,11,12,12,14,14,15,15,16,16,17,17,18,18,19,19,20,20,21,21,22,22,23,23,24,24,25,25,26,26,29,29,30,30,31,31,32,32,33,33,34,34,35,35,36,36,37,37,38,38,40,40,41,41,42,42,43,43,44,44,47,47,48,48,49,49,50,50,52,52],"right_children":[2,4,6,8,10,12,14,16,18,20,22,24,26,-1,28,30,32,34,36,38,40,42,44,46,48,50,52,-1,-1,54,56,58,60,62,64,66,68,70,72,-1,74,76,78,80,82,-1,-1,84,86,88,90,-1,92,-1,-1,-1,-1,-1,-1,-1,-1,-1,-1,-1,-1,-1,-1,-1,-1,-1,-1,-1,-1,-1,-1,-1,-1,-1,-1,-1,-1,-1,-1,-1,-1,-1,-1,-1,-1,-1,-1,-1,-1],"split_conditions":[5.7101053E-1,2.4667753E-1,7.188908E-1,1.6334169E-2,5.256518E-1,1.4752477E-3,2.1104737E-1,5.315657E-1,2.102652E-4,3.085538E-1,4.5244494E-1,1.5435494E-1,1.3394357E-2,-3.1042615E-1,3.4227124E-1,2.7494684E-1,2.304765E-1,1.1067166E-1,8.0771476E-1,5.395174E-2,3.6581987E-1,2.0143661E-1,4.4884395E-2,5.3538408E-2,5.0376228E-5,2.5128801E-3,3.7690707E-2,-1.9219102E-1,1.3236257E-1,7.7887E-1,3.744077E-1,3.8113648E-1,5.5626865E-2,3.291047E-2,2.3453757E-1,2.2080746E-1,3.0980322E-3,3.8644348E-3,4.1430068E-1,-3.012356E-1,2.876735E-1,3.430538E-1,4.937444E-2,2.108076E-5,7.597155E-1,-1.720683E-1,1.661596E-1,7.046097E-1,2.5519624E-1,1.2779288E-1,2.5075012E-1,2.4884005E-1,4.7870314E-1,1.1899648E-1,-1.6987759E-1,-1.2155042E-1,5.860634E-2,-2.8168058E-1,1.6124532E-1,6.941246E-1,-1.927448E-1,1.1311495E-1,-1.898452E-1,1.9147381E-1,-2.372061E-1,-2.8104085E-1,-1.8724301E-1,-1.867731E-1,2.9660484E-1,2.241003E-1,-3.161493E-2,-1.7953525E-1,7.358228E-2,-1.891886E-1,1.272359E-1,-3.0963507E-1,-1.024869E-1,-2.375631E-1,5.850681E-1,-2.7470958E-1,-1.0723099E-2,5.50131E-1,-1.6533399E-1,-3.0434006E-1,-1.3413458E-1,2.5468307E-2,-2.6539367E-1,4.818816E-1,-1.6349252E-1,-1.5522878E-1,2.85652E-1,-2.6307184E-1,1.16545714E-1],"split_indices":[3,5,3,0,5,6,2,6,6,8,12,13,5,0,12,9,3,11,2,3,6,6,2,2,0,6,11,0,0,8,4,8,10,4,13,3,8,8,4,0,12,2,2,1,5,0,0,3,9,11,2,0,13,0,0,0,0,0,0,0,0,0,0,0,0,0,0,0,0,0,0,0,0,0,0,0,0,0,0,0,0,0,0,0,0,0,0,0,0,0,0,0,0],"split_type":[0,0,0,0,0,0,0,0,0,0,0,0,0,0,0,0,0,0,0,0,0,0,0,0,0,0,0,0,0,0,0,0,0,0,0,0,0,0,0,0,0,0,0,0,0,0,0,0,0,0,0,0,0,0,0,0,0,0,0,0,0,0,0,0,0,0,0,0,0,0,0,0,0,0,0,0,0,0,0,0,0,0,0,0,0,0,0,0,0,0,0,0,0],"sum_hessian":[5.9576963E3,5.462965E3,4.9473154E2,4.7089834E3,7.539816E2,1.0099961E2,3.9373193E2,4.273891E3,4.3509198E2,4.505386E2,3.0344302E2,5.287063E1,4.812898E1,3.9113623E2,2.595701E0,4.0382104E3,2.356807E2,1.4411993E2,2.9097205E2,3.6268082E2,8.785777E1,2.9298788E2,1.04551525E1,2.299658E0,5.057097E1,1.8659729E1,2.9469252E1,1.5529213E0,1.0427797E0,3.1868076E3,8.514028E2,2.3268929E2,2.991416E0,7.739461E1,6.672533E1,2.8321808E2,7.75396E0,1.9444276E2,1.6823805E2,8.561275E1,2.2450204E0,2.8497543E2,8.01243E0,6.6073074E0,3.8478446E0,1.0757592E0,1.2238988E0,4.047476E1,1.0096212E1,3.4286938E0,1.5231034E1,1.1098411E0,2.835941E1,3.0591228E3,1.2768501E2,5.2844653E2,3.2295627E2,2.2707787E2,5.6114225E0,1.394309E0,1.5971069E0,5.0696415E1,2.669819E1,1.3289428E0,6.5396385E1,2.3324992E2,4.9968163E1,4.5663753E0,3.1875849E0,2.3573841E1,1.7086893E2,1.4681674E2,2.142132E1,1.2396637E0,1.0053567E0,2.8331128E2,1.6641808E0,6.999099E0,1.0133318E0,5.5974197E0,1.009888E0,2.7757478E0,1.0720968E0,3.5080246E1,5.394513E0,4.9363832E0,5.1598296E0,2.402688E0,1.0260056E0,1.2024251E1,3.2067833E0,2.7253996E1,1.1054142E0],"tree_param":{"num_deleted":"0","num_feature":"14","num_nodes":"93","size_leaf_vector":"1"}},{"base_weights":[-6.779883E-2,-8.315063E-3,-9.6947354E-1,4.5238912E-2,-8.215037E-1,-1.0051998E0,-4.8686817E-1,1.0222204E-1,-6.810072E-1,-8.513472E-1,8.6519605E-1,-1.0130643E0,-4.5220375E-1,-5.902675E-1,4.0553817E-1,-1.982574E-1,2.2664505E-1,-4.7059086E-1,-1.000478E0,-9.006512E-1,1.1010122E-1,-3.0485243E-1,-1.713467E-2,-2.571346E-1,1.5801203E-1,1.44513E-1,-6.923327E-1,-8.863258E-2,2.9298976E-1,-1.10913865E-1,-8.9666176E-1,7.3569363E-1,1.4911152E-1,4.1333705E-1,-5.5197895E-1,-1.0141848E0,-1.9110477E-1,-9.5591754E-1,-3.1942254E-1,1.3781792E0,-3.8325813E-1,-7.6892936E-1,1.0644277E-1,-1.9024383E-1,-9.218919E-3,-2.7450642E-1,2.0679396E-1,2.3983699E-1,-1.9015272E-1,5.9070542E-2,-1.2933402E-1,2.350125E-1,-2.7360842E-1,-1.8789749E-1,-6.243863E-4,-3.0792838E-1,-8.68065E-2,1.4081231E-1,-1.8983583E-1,-2.9676884E-1,-1.3628258E-1,-1.833588E-1,8.143802E-1,6.9638145E-1,-7.5096786E-2,-2.661628E-1,1.4260589E-1,-2.7355716E-1,-1.3824767E-1],"categories":[],"categories_nodes":[],"categories_segments":[],"categories_sizes":[],"default_left":[0,0,1,0,0,1,0,0,0,0,0,1,0,0,0,0,0,0,0,0,0,0,0,0,0,0,0,0,0,0,0,0,0,0,0,0,0,0,0,0,0,0,0,0,0,0,0,0,0,0,0,0,0,0,0,0,0,0,0,0,0,0,0,0,0,0,0,0,0],"id":6,"left_children":[1,3,5,7,9,11,13,15,17,19,-1,21,23,25,27,29,31,33,35,37,39,-1,-1,-1,-1,-1,41,-1,-1,43,45,47,49,51,53,55,57,59,61,63,65,67,-1,-1,-1,-1,-1,-1,-1,-1,-1,-1,-1,-1,-1,-1,-1,-1,-1,-1,-1,-1,-1,-1,-1,-1,-1,-1,-1],"loss_changes":[2.9848837E2,2.2744873E2,5.4489136E0,2.0285883E2,3.8141235E1,9.324341E-1,2.6088247E0,1.6995073E2,2.350325E1,1.5310669E1,0E0,8.769531E-1,2.9444952E0,2.8958454E0,1.5932243E0,8.1111755E1,1.2675191E2,1.5832783E1,1.3674774E0,9.503296E0,1.0878549E1,0E0,0E0,0E0,0E0,0E0,2.0208397E0,0E0,0E0,4.9674454E1,4.9357147E0,3.7585403E1,7.746742E1,9.963997E0,8.13633E0,9.2900085E-1,1.3401549E0,4.2017517E0,2.6459583E1,8.032029E0,5.9138722E0,4.8799706E-1,0E0,0E0,0E0,0E0,0E0,0E0,0E0,0E0,0E0,0E0,0E0,0E0,0E0,0E0,0E0,0E0,0E0,0E0,0E0,0E0,0E0,0E0,0E0,0E0,0E0,0E0,0E0],"parents":[2147483647,0,0,1,1,2,2,3,3,4,4,5,5,6,6,7,7,8,8,9,9,11,11,12,12,13,13,14,14,15,15,16,16,17,17,18,18,19,19,20,20,26,26,29,29,30,30,31,31,32,32,33,33,34,34,35,35,36,36,37,37,38,38,39,39,40,40,41,41],"right_children":[2,4,6,8,10,12,14,16,18,20,-1,22,24,26,28,30,32,34,36,38,40,-1,-1,-1,-1,-1,42,-1,-1,44,46,48,50,52,54,56,58,60,62,64,66,68,-1,-1,-1,-1,-1,-1,-1,-1,-1,-1,-1,-1,-1,-1,-1,-1,-1,-1,-1,-1,-1,-1,-1,-1,-1,-1,-1],"split_conditions":[6.3317066E-1,4.1299155E-1,1.7198819E-1,7.5267977E-4,4.1216856E-1,2.1539104E-1,1.23335294E-1,1.705388E-3,3.137509E-2,3.4768632E-1,8.6519605E-1,2.3127338E-1,2.1986738E-3,1.1365741E-2,3.066201E-4,5.831556E-1,2.2183001E-1,3.140538E-4,4.856494E-1,2.2104195E-1,1.0606558E-3,-3.0485243E-1,-1.713467E-2,-2.571346E-1,1.5801203E-1,1.44513E-1,6.196842E-2,-8.863258E-2,2.9298976E-1,5.3360034E-4,3.695765E-1,4.9951557E-2,1.0472597E-2,1.130179E-3,3.3046064E-1,8.522905E-1,4.4314235E-2,4.3864077E-1,5.24083E-2,4.1430068E-1,3.2426977E-1,2.49995E-1,1.0644277E-1,-1.9024383E-1,-9.218919E-3,-2.7450642E-1,2.0679396E-1,2.3983699E-1,-1.9015272E-1,5.9070542E-2,-1.2933402E-1,2.350125E-1,-2.7360842E-1,-1.8789749E-1,-6.243863E-4,-3.0792838E-1,-8.68065E-2,1.4081231E-1,-1.8983583E-1,-2.9676884E-1,-1.3628258E-1,-1.833588E-1,8.143802E-1,6.9638145E-1,-7.5096786E-2,-2.661628E-1,1.4260589E-1,-2.7355716E-1,-1.3824767E-1],"split_indices":[3,5,2,7,6,4,4,2,7,4,0,1,6,10,1,6,13,4,0,6,3,0,0,0,0,0,1,0,0,4,8,5,0,6,8,1,10,12,2,4,9,9,0,0,0,0,0,0,0,0,0,0,0,0,0,0,0,0,0,0,0,0,0,0,0,0,0,0,0],"split_type":[0,0,0,0,0,0,0,0,0,0,0,0,0,0,0,0,0,0,0,0,0,0,0,0,0,0,0,0,0,0,0,0,0,0,0,0,0,0,0,0,0,0,0,0,0,0,0,0,0,0,0,0,0,0,0,0,0,0,0,0,0,0,0,0,0,0,0,0,0],"sum_hessian":[5.564328E3,5.220912E3,3.4341602E2,4.8992104E3,3.217018E2,3.1873767E2,2.4678349E1,4.5435693E3,3.5564084E2,3.1989566E2,1.8061508E0,3.13448E2,5.289663E0,2.2419289E1,2.259061E0,1.3303071E3,3.2132625E3,2.1590813E2,1.3973273E2,3.0435144E2,1.5544196E1,3.1236862E2,1.0793921E0,3.8299015E0,1.4597613E0,1.6256511E0,2.0793636E1,1.2308946E0,1.0281664E0,1.1834604E3,1.468466E2,4.2360214E2,2.7896602E3,1.7859852E1,1.9804828E2,1.371569E2,2.5758147E0,2.7733618E2,2.7015257E1,3.8514314E0,1.1692765E1,1.962387E1,1.1697662E0,1.5634445E2,1.0271161E3,1.4558435E2,1.262264E0,4.0515515E2,1.8446991E1,2.5779849E3,2.1167534E2,1.4281451E1,3.5784016E0,1.7433875E2,2.370953E1,1.3446951E2,2.687397E0,1.0071094E0,1.5687053E0,2.5915488E2,1.818133E1,2.5373693E1,1.6415637E0,2.1695855E0,1.681846E0,7.3471427E0,4.3456225E0,1.2066641E1,7.55723E0],"tree_param":{"num_deleted":"0","num_feature":"14","num_nodes":"69","size_leaf_vector":"1"}},{"base_weights":[-5.6893785E-2,-3.4773014E-3,-8.298763E-1,4.665453E-2,-6.3724303E-1,-5.015334E-1,-9.977751E-1,8.649707E-2,-6.7196107E-1,-7.618328E-1,-1.6640563E-2,-3.4922984E-1,-8.044061E-1,-1.0063713E0,-5.5625353E-2,1.15372226E-1,-8.5030574E-1,-4.561838E-1,-9.842612E-1,-9.7456884E-1,-4.553345E-1,2.0023508E0,-1.8501315E-1,-2.0524023E-1,-7.666776E-1,-8.7069595E-1,8.172338E-2,-3.0318624E-1,-4.810894E-1,-1.5943594E-1,1.3641089E-1,2.6072663E-1,-7.392891E-2,-8.700867E-1,1.5520634E-1,5.366606E-1,-5.692036E-1,-9.938761E-1,-2.221241E-2,-3.023056E-1,-2.8073767E-1,-7.1115035E-1,-5.6652077E-2,8.647272E-1,-1.7304598E-1,-5.083486E-1,6.252191E-1,-3.0938205E-1,4.778002E-1,-8.8508004E-1,-1.2817422E-1,-9.196698E-1,3.073433E-2,-6.0154297E-3,-1.9392043E-1,9.421043E-2,-5.6649208E-2,-7.3047414E-2,4.008433E-2,-2.6915187E-1,1.7942077E-2,3.1613803E-1,-1.15197815E-1,-1.17057115E-1,-2.6383698E-1,-3.0110037E-1,-1.594242E-2,-3.0125183E-1,3.9398518E-1,1.5501036E-1,-2.3670585E-1,-6.2461667E-2,2.8963187E-1,-2.2211401E-1,1.5620063E-1,5.341797E-1,-1.4234765E-1,4.3139897E-2,-1.3823277E-1,3.699238E-1,-1.7312564E-1,-2.9787996E-1,-7.37839E-2,1.7086828E-1,-2.0831744E-1,-2.8287387E-1,-2.333154E-2],"categories":[],"categories_nodes":[],"categories_segments":[],"categories_sizes":[],"default_left":[0,0,0,0,0,0,1,0,0,0,0,0,0,1,0,0,0,0,0,0,0,0,0,0,0,0,0,0,0,0,0,0,0,0,0,0,0,0,0,0,0,0,0,0,0,0,0,0,0,0,0,0,0,0,0,0,0,0,0,0,0,0,0,0,0,0,0,0,0,0,0,0,0,0,0,0,0,0,0,0,0,0,0,0,0,0,0],"id":7,"left_children":[1,3,5,7,9,11,13,15,17,19,21,23,25,27,29,31,33,35,37,39,41,43,45,47,49,51,-1,-1,53,-1,-1,55,57,59,-1,61,63,65,-1,-1,67,69,71,-1,-1,73,75,77,79,81,83,85,-1,-1,-1,-1,-1,-1,-1,-1,-1,-1,-1,-1,-1,-1,-1,-1,-1,-1,-1,-1,-1,-1,-1,-1,-1,-1,-1,-1,-1,-1,-1,-1,-1,-1,-1],"loss_changes":[2.1687776E2,1.5615987E2,1.821634E1,1.3046925E2,2.7845001E1,5.1106586E0,1.755188E0,1.16859085E2,1.5682365E1,1.911905E1,2.119512E1,4.62364E0,2.9741E0,8.346558E-3,9.8967886E-1,1.1526207E2,3.9451218E0,1.6400223E1,7.748947E-1,3.7662964E0,1.2688156E1,1.255802E1,1.5370827E1,4.451811E0,1.4011097E0,1.8269234E0,0E0,0E0,2.6800054E-1,0E0,0E0,5.684076E1,6.407779E1,3.2705078E0,0E0,7.6288066E0,6.8358192E0,8.2962036E-1,0E0,0E0,1.21750145E1,7.6680145E0,7.9253807E0,0E0,0E0,1.0323181E1,2.223893E1,3.7099638E0,7.4024E0,9.0907E-1,2.0955627E0,6.059742E-1,0E0,0E0,0E0,0E0,0E0,0E0,0E0,0E0,0E0,0E0,0E0,0E0,0E0,0E0,0E0,0E0,0E0,0E0,0E0,0E0,0E0,0E0,0E0,0E0,0E0,0E0,0E0,0E0,0E0,0E0,0E0,0E0,0E0,0E0,0E0],"parents":[2147483647,0,0,1,1,2,2,3,3,4,4,5,5,6,6,7,7,8,8,9,9,10,10,11,11,12,12,13,13,14,14,15,15,16,16,17,17,18,18,19,19,20,20,21,21,22,22,23,23,24,24,25,25,28,28,31,31,32,32,33,33,35,35,36,36,37,37,40,40,41,41,42,42,45,45,46,46,47,47,48,48,49,49,50,50,51,51],"right_children":[2,4,6,8,10,12,14,16,18,20,22,24,26,28,30,32,34,36,38,40,42,44,46,48,50,52,-1,-1,54,-1,-1,56,58,60,-1,62,64,66,-1,-1,68,70,72,-1,-1,74,76,78,80,82,84,86,-1,-1,-1,-1,-1,-1,-1,-1,-1,-1,-1,-1,-1,-1,-1,-1,-1,-1,-1,-1,-1,-1,-1,-1,-1,-1,-1,-1,-1,-1,-1,-1,-1,-1,-1],"split_conditions":[5.300741E-1,3.4511834E-1,7.188908E-1,1.705388E-3,2.2104195E-1,3.6527604E-2,2.1104737E-1,5.831556E-1,4.2146053E-2,1.260786E-1,1.5893955E-5,1.7714223E-1,5.7113137E-2,1.842712E-1,3.4227124E-1,1.21086374E-1,3.695765E-1,3.2179596E-5,2.4246179E-1,1.7198819E-1,1.8265689E-2,1.1579996E-1,3.0246578E-4,2.5420874E-1,2.8080937E-2,7.046097E-1,8.172338E-2,-3.0318624E-1,2.3369756E-1,-1.5943594E-1,1.3641089E-1,4.602001E-1,2.3676543E-1,1.7260247E-1,1.5520634E-1,5.14354E-2,8.149949E-2,1.7825471E-1,-2.221241E-2,-3.023056E-1,4.7690693E-2,1.9898064E-1,1.6354392E-1,8.647272E-1,-1.7304598E-1,1.4946133E-1,5.36606E-3,2.8112343E-1,4.699534E-3,2.1057768E-2,5.5269888E-3,2.7374443E-1,3.073433E-2,-6.0154297E-3,-1.9392043E-1,9.421043E-2,-5.6649208E-2,-7.3047414E-2,4.008433E-2,-2.6915187E-1,1.7942077E-2,3.1613803E-1,-1.15197815E-1,-1.17057115E-1,-2.6383698E-1,-3.0110037E-1,-1.594242E-2,-3.0125183E-1,3.9398518E-1,1.5501036E-1,-2.3670585E-1,-6.2461667E-2,2.8963187E-1,-2.2211401E-1,1.5620063E-1,5.341797E-1,-1.4234765E-1,4.3139897E-2,-1.3823277E-1,3.699238E-1,-1.7312564E-1,-2.9787996E-1,-7.37839E-2,1.7086828E-1,-2.0831744E-1,-2.8287387E-1,-2.333154E-2],"split_indices":[3,5,3,7,6,5,2,6,7,4,8,11,6,2,12,11,8,4,5,2,2,10,2,9,6,3,0,0,12,0,0,8,4,3,0,3,0,6,0,0,4,13,10,0,0,4,2,13,8,5,5,2,0,0,0,0,0,0,0,0,0,0,0,0,0,0,0,0,0,0,0,0,0,0,0,0,0,0,0,0,0,0,0,0,0,0,0],"split_type":[0,0,0,0,0,0,0,0,0,0,0,0,0,0,0,0,0,0,0,0,0,0,0,0,0,0,0,0,0,0,0,0,0,0,0,0,0,0,0,0,0,0,0,0,0,0,0,0,0,0,0,0,0,0,0,0,0,0,0,0,0,0,0,0,0,0,0,0,0,0,0,0,0,0,0,0,0,0,0,0,0,0,0,0,0,0,0],"sum_hessian":[5.2516177E3,4.913105E3,3.385126E2,4.5538174E3,3.5928748E2,1.1588159E2,2.2263103E2,4.3154346E3,2.3838301E2,2.9902817E2,6.0259308E1,7.853985E1,3.734174E1,2.2055055E2,2.08047E0,4.1872476E3,1.2818707E2,1.4243279E2,9.595023E1,1.7522636E2,1.23801796E2,3.8000247E0,5.6459286E1,5.9506145E1,1.9033705E1,3.5356575E1,1.9851651E0,2.1786412E2,2.6864326E0,1.0552062E0,1.0252638E0,2.3683433E3,1.818904E3,1.2671811E2,1.4689573E0,1.4173613E1,1.2825917E2,9.485633E1,1.093902E0,1.6681212E2,8.414258E0,7.493547E1,4.886633E1,2.7455883E0,1.0544364E0,4.0621323E1,1.5837963E1,5.210834E1,7.3978033E0,1.5730503E1,3.3032024E0,3.3714813E1,1.641763E0,1.0049698E0,1.6814626E0,2.1175479E3,2.5079553E2,1.00095374E3,8.1795026E2,1.2316571E2,3.5523999E0,8.983146E0,5.1904664E0,8.2763176E1,4.5496E1,9.381297E1,1.0433584E0,6.0421233E0,2.3721352E0,4.132837E0,7.080263E1,4.324966E1,5.6166687E0,3.3375935E1,7.245386E0,7.421562E0,8.4164E0,1.3061188E1,3.9047153E1,4.212679E0,3.1851244E0,1.298563E1,2.744873E0,1.477102E0,1.8261005E0,3.2692265E1,1.0225487E0],"tree_param":{"num_deleted":"0","num_feature":"14","num_nodes":"87","size_leaf_vector":"1"}},{"base_weights":[-4.8394296E-2,-1.1833254E-2,-9.097021E-1,1.4527331E-2,-8.698922E-1,-9.68488E-1,-3.3877197E-1,4.5621295E-2,-6.254243E-1,-9.486024E-1,-1.3835001E-1,-9.9483925E-1,-5.5662477E-1,-6.568985E-2,-2.6660725E-1,5.3062147E-1,7.394964E-3,-8.6903945E-2,-7.092101E-1,-9.829376E-1,-1.539358E-1,-4.2443588E-1,5.803985E-1,-3.0014446E-1,-1.0265644E-2,-8.6379844E-1,1.5968825E-1,-3.9464742E-1,8.852115E-1,6.249828E-1,-2.5605148E-1,-7.907064E-2,2.3890005E-1,-5.7188666E-1,5.1266974E-1,-6.1596465E-1,-9.732921E-1,-3.0386227E-1,-5.5579644E-1,-2.4456026E-1,8.595833E-1,1.7739463E-1,-2.791618E-1,-2.6359534E-2,-2.841161E-1,-2.117792E-1,2.9626337E-1,1.5771206E-1,-5.8533895E-1,4.8562598E-1,-7.701175E-2,2.0083319E-1,-2.723448E-1,-1.7368221E-1,1.10013984E-1,-1.2330742E-1,-4.309122E-3,1.2558135E-1,-7.530702E-2,-2.3604657E-1,-3.1210056E-3,3.073092E-1,-2.4538083E-1,-2.4993347E-1,-1.1875631E-1,-1.0675159E-1,-2.9781702E-1,-2.445203E-1,1.9016169E-1,-3.0108338E-2,4.2563012E-1,2.3104812E-1,-1.6288608E-1,-2.4495572E-1,1.257389E-1],"categories":[],"categories_nodes":[],"categories_segments":[],"categories_sizes":[],"default_left":[0,0,1,0,0,1,0,0,0,0,0,1,0,0,0,0,0,0,0,0,0,0,0,0,0,0,0,0,0,0,0,0,0,0,0,0,0,0,0,0,0,0,0,0,0,0,0,0,0,0,0,0,0,0,0,0,0,0,0,0,0,0,0,0,0,0,0,0,0,0,0,0,0,0,0],"id":8,"left_children":[1,3,5,7,9,11,13,15,17,19,21,23,25,27,-1,29,31,33,35,37,39,41,-1,-1,-1,43,45,47,49,51,53,55,57,59,61,63,65,-1,67,-1,69,71,-1,-1,-1,-1,-1,-1,73,-1,-1,-1,-1,-1,-1,-1,-1,-1,-1,-1,-1,-1,-1,-1,-1,-1,-1,-1,-1,-1,-1,-1,-1,-1,-1],"loss_changes":[1.5750194E2,1.0856716E2,6.507431E0,9.270075E1,8.106201E0,1.4444427E0,3.027782E0,8.235622E1,9.678383E0,3.3682785E0,9.757439E0,8.967743E-1,3.0735245E0,4.9824853E0,0E0,2.4251015E1,8.246602E1,9.075853E0,3.9969788E0,1.0158157E0,5.0760117E0,4.4478664E0,0E0,0E0,0E0,5.3006935E-1,4.1713405E0,2.3604481E0,3.862705E0,2.0376022E1,7.344434E0,6.4423256E1,9.873561E1,2.0639405E0,1.0392725E1,6.394058E0,2.1049118E-1,0E0,3.6943946E0,0E0,1.7872844E0,3.5194056E0,0E0,0E0,0E0,0E0,0E0,0E0,2.7019625E0,0E0,0E0,0E0,0E0,0E0,0E0,0E0,0E0,0E0,0E0,0E0,0E0,0E0,0E0,0E0,0E0,0E0,0E0,0E0,0E0,0E0,0E0,0E0,0E0,0E0,0E0],"parents":[2147483647,0,0,1,1,2,2,3,3,4,4,5,5,6,6,7,7,8,8,9,9,10,10,11,11,12,12,13,13,15,15,16,16,17,17,18,18,19,19,20,20,21,21,25,25,26,26,27,27,28,28,29,29,30,30,31,31,32,32,33,33,34,34,35,35,36,36,38,38,40,40,41,41,48,48],"right_children":[2,4,6,8,10,12,14,16,18,20,22,24,26,28,-1,30,32,34,36,38,40,42,-1,-1,-1,44,46,48,50,52,54,56,58,60,62,64,66,-1,68,-1,70,72,-1,-1,-1,-1,-1,-1,74,-1,-1,-1,-1,-1,-1,-1,-1,-1,-1,-1,-1,-1,-1,-1,-1,-1,-1,-1,-1,-1,-1,-1,-1,-1,-1],"split_conditions":[6.3317066E-1,5.256518E-1,1.7198819E-1,4.1922115E-2,4.3864077E-1,1.558458E-1,7.530429E-2,1.0695163E-1,1.585354E-4,2.0143661E-1,1.2638485E-1,2.2679259E-1,2.1674162E-2,3.4227124E-1,-2.6660725E-1,3.725201E-2,2.184287E-6,2.2679259E-1,1.5039675E-2,2.1013863E-1,3.7455983E-2,7.6845638E-3,5.803985E-1,-3.0014446E-1,-1.0265644E-2,7.5888806E-3,6.8816257E-1,1.7508738E-1,7.698312E-5,5.485563E-1,1.08757176E-1,5.3360034E-4,9.155304E-6,4.0995032E-1,6.516962E-2,7.614436E-2,6.079413E-3,-3.0386227E-1,4.6066228E-1,-2.4456026E-1,1.0829185E-1,2.35182E-2,-2.791618E-1,-2.6359534E-2,-2.841161E-1,-2.117792E-1,2.9626337E-1,1.5771206E-1,1.18621245E-1,4.8562598E-1,-7.701175E-2,2.0083319E-1,-2.723448E-1,-1.7368221E-1,1.10013984E-1,-1.2330742E-1,-4.309122E-3,1.2558135E-1,-7.530702E-2,-2.3604657E-1,-3.1210056E-3,3.073092E-1,-2.4538083E-1,-2.4993347E-1,-1.1875631E-1,-1.0675159E-1,-2.9781702E-1,-2.445203E-1,1.9016169E-1,-3.0108338E-2,4.2563012E-1,2.3104812E-1,-1.6288608E-1,-2.4495572E-1,1.257389E-1],"split_indices":[3,5,2,0,12,4,10,12,4,6,2,1,5,12,0,5,0,1,7,4,4,3,0,0,0,2,3,13,6,6,5,4,7,13,10,1,2,0,13,0,11,8,0,0,0,0,0,0,4,0,0,0,0,0,0,0,0,0,0,0,0,0,0,0,0,0,0,0,0,0,0,0,0,0,0],"split_type":[0,0,0,0,0,0,0,0,0,0,0,0,0,0,0,0,0,0,0,0,0,0,0,0,0,0,0,0,0,0,0,0,0,0,0,0,0,0,0,0,0,0,0,0,0,0,0,0,0,0,0,0,0,0,0,0,0,0,0,0,0,0,0,0,0,0,0,0,0,0,0,0,0,0,0],"sum_hessian":[5.000941E3,4.7982764E3,2.0266487E2,4.656215E3,1.4206136E2,1.8311418E2,1.9550695E1,4.4413477E3,2.1486745E2,1.27993225E2,1.4068133E1,1.7077258E2,1.2341601E1,1.3811532E1,5.7391624E0,3.235387E2,4.1178086E3,2.920351E1,1.8566393E2,1.2246496E2,5.528272E0,1.3060919E1,1.0072151E0,1.6973416E2,1.038424E0,8.493481E0,3.8481207E0,1.0696225E1,3.1153073E0,2.890703E2,3.44684E1,2.9985344E3,1.1192743E3,1.6170061E1,1.3033449E1,1.3967735E2,4.598658E1,1.13162544E2,9.302409E0,3.4639256E0,2.0643466E0,6.2629046E0,6.798014E0,1.0221808E0,7.4713E0,1.9531533E0,1.8949674E0,1.5342882E0,9.161937E0,1.642578E0,1.4727293E0,2.8146912E2,7.6011796E0,2.2745663E1,1.17227335E1,4.8827484E2,2.5102598E3,8.190071E2,3.0026715E2,1.1403491E1,4.766571E0,9.579669E0,3.45378E0,6.891007E1,7.076728E1,1.9922711E0,4.399431E1,7.8963847E0,1.406025E0,1.0619061E0,1.0024403E0,3.3977706E0,2.865134E0,7.599917E0,1.5620197E0],"tree_param":{"num_deleted":"0","num_feature":"14","num_nodes":"75","size_leaf_vector":"1"}},{"base_weights":[-3.860653E-2,-1.1679792E-2,-9.1699535E-1,4.8171896E-2,-3.0022144E-1,-9.420162E-1,1.19876E-1,1.2332124E-1,-2.1689895E-1,-3.8788626E-1,2.5313705E-1,-9.7120297E-1,-3.9383274E-1,-1.8934788E-1,2.2217526E-1,1.722942E-1,-3.09924E-1,-6.239629E-1,-7.85041E-2,-6.9051313E-1,-1.561768E-1,-3.6120594E-1,7.177401E-1,-2.969696E-1,-5.013725E-1,-2.6234928E-1,4.7688693E-1,1.9663766E-1,-8.3457786E-1,-3.5318464E-1,1.1083276E0,-3.5082886E-1,-8.30239E-1,1.1043646E-1,-4.146427E-1,-1.1665681E-1,-7.5230414E-1,-9.133046E-3,-6.092495E-1,1.2254599E0,-5.539338E-1,-8.1987254E-2,1.0307088E0,2.0016599E-1,-2.4918114E-1,3.106342E-1,-1.5921243E-1,6.542059E-2,-1.6578406E-1,-2.711977E-1,7.301292E-2,-7.233191E-2,-2.532377E-1,-4.0519163E-2,4.87388E-1,-1.541182E-1,3.0277813E-2,5.984455E-2,-2.551725E-1,-4.7350302E-2,8.605789E-2,-1.5113322E-1,3.115486E-1,4.8882875E-1,-9.636861E-2,-2.5443012E-1,-1.4717446E-1,-5.804224E-2,7.735892E-2,-2.1645688E-1,2.6514348E-2,7.4266696E-1,-5.673637E-2,-2.4063736E-1,-2.637525E-2,-2.1378557E-1,2.4008979E-1,-2.8676555E-1,3.804616E-1,1.3706945E-1,-4.5182772E-2],"categories":[],"categories_nodes":[],"categories_segments":[],"categories_sizes":[],"default_left":[0,0,1,0,0,1,0,0,0,0,0,1,0,0,0,0,0,0,0,0,0,0,0,0,0,0,0,0,0,0,0,0,0,0,0,0,0,0,0,0,0,0,0,0,0,0,0,0,0,0,0,0,0,0,0,0,0,0,0,0,0,0,0,0,0,0,0,0,0,0,0,0,0,0,0,0,0,0,0,0,0],"id":9,"left_children":[1,3,5,7,9,11,13,15,17,19,21,23,25,-1,-1,27,29,31,33,35,37,39,41,-1,43,-1,45,47,49,51,53,55,57,59,61,63,65,67,69,71,73,75,77,79,-1,-1,-1,-1,-1,-1,-1,-1,-1,-1,-1,-1,-1,-1,-1,-1,-1,-1,-1,-1,-1,-1,-1,-1,-1,-1,-1,-1,-1,-1,-1,-1,-1,-1,-1,-1,-1],"loss_changes":[1.1471706E2,8.130935E1,3.8554764E0,7.7705124E1,3.9334747E1,1.8730392E0,2.465548E0,6.4529106E1,4.84959E1,4.888005E1,3.2004066E1,6.733856E-1,4.1035953E0,0E0,0E0,6.709938E1,1.9348341E1,1.20187E1,4.096026E1,1.0644104E1,2.6440483E1,1.552734E1,1.601846E1,0E0,1.8113158E0,0E0,2.6769917E0,4.2948105E1,5.057995E0,1.633588E1,6.24568E0,7.0975122E0,2.7610168E0,1.9601578E1,3.0575714E1,1.145533E1,6.4298553E0,1.4850324E1,7.680908E0,1.0318976E1,5.017006E0,1.1048712E1,2.283503E1,3.4624985E-1,0E0,0E0,0E0,0E0,0E0,0E0,0E0,0E0,0E0,0E0,0E0,0E0,0E0,0E0,0E0,0E0,0E0,0E0,0E0,0E0,0E0,0E0,0E0,0E0,0E0,0E0,0E0,0E0,0E0,0E0,0E0,0E0,0E0,0E0,0E0,0E0,0E0],"parents":[2147483647,0,0,1,1,2,2,3,3,4,4,5,5,6,6,7,7,8,8,9,9,10,10,11,11,12,12,15,15,16,16,17,17,18,18,19,19,20,20,21,21,22,22,24,24,26,26,27,27,28,28,29,29,30,30,31,31,32,32,33,33,34,34,35,35,36,36,37,37,38,38,39,39,40,40,41,41,42,42,43,43],"right_children":[2,4,6,8,10,12,14,16,18,20,22,24,26,-1,-1,28,30,32,34,36,38,40,42,-1,44,-1,46,48,50,52,54,56,58,60,62,64,66,68,70,72,74,76,78,80,-1,-1,-1,-1,-1,-1,-1,-1,-1,-1,-1,-1,-1,-1,-1,-1,-1,-1,-1,-1,-1,-1,-1,-1,-1,-1,-1,-1,-1,-1,-1,-1,-1,-1,-1,-1,-1],"split_conditions":[6.690688E-1,1.6960599E-1,2.3070133E-1,2.6929745E-1,3.3694366E-1,1.558458E-1,1.4416987E-4,7.0657166E-5,5.264617E-2,1.5924194E-1,1.5786883E-1,1.842712E-1,2.1674162E-2,-1.8934788E-1,2.2217526E-1,6.030411E-1,8.969314E-1,1.9800521E-1,1.414591E-1,1.932231E-1,1.6865218E-1,1.546173E-1,7.345032E-5,-2.969696E-1,3.5995026E-6,-2.6234928E-1,7.1529716E-2,8.1630695E-1,1.13607544E-4,2.7750757E-2,3.7628287E-3,6.044919E-2,2.738327E-1,2.4350952E-2,1.5001793E-1,1.501234E-5,8.1688384E-5,2.6827909E-2,9.4417386E-2,3.6670227E-2,4.5347354E-1,4.3564627E-1,1.4952096E-1,6.1264154E-2,-2.4918114E-1,3.106342E-1,-1.5921243E-1,6.542059E-2,-1.6578406E-1,-2.711977E-1,7.301292E-2,-7.233191E-2,-2.532377E-1,-4.0519163E-2,4.87388E-1,-1.541182E-1,3.0277813E-2,5.984455E-2,-2.551725E-1,-4.7350302E-2,8.605789E-2,-1.5113322E-1,3.115486E-1,4.8882875E-1,-9.636861E-2,-2.5443012E-1,-1.4717446E-1,-5.804224E-2,7.735892E-2,-2.1645688E-1,2.6514348E-2,7.4266696E-1,-5.673637E-2,-2.4063736E-1,-2.637525E-2,-2.1378557E-1,2.4008979E-1,-2.8676555E-1,3.804616E-1,1.3706945E-1,-4.5182772E-2],"split_indices":[3,5,2,9,6,4,1,7,4,4,8,2,5,0,0,6,2,11,3,5,3,12,3,0,1,0,11,8,1,7,1,5,9,6,8,4,1,2,2,8,13,6,9,4,0,0,0,0,0,0,0,0,0,0,0,0,0,0,0,0,0,0,0,0,0,0,0,0,0,0,0,0,0,0,0,0,0,0,0,0,0],"split_type":[0,0,0,0,0,0,0,0,0,0,0,0,0,0,0,0,0,0,0,0,0,0,0,0,0,0,0,0,0,0,0,0,0,0,0,0,0,0,0,0,0,0,0,0,0,0,0,0,0,0,0,0,0,0,0,0,0,0,0,0,0,0,0,0,0,0,0,0,0,0,0,0,0,0,0,0,0,0,0,0,0],"sum_hessian":[4.8496284E3,4.7063696E3,1.43259E2,3.8985361E3,8.0783344E2,1.399728E2,3.286215E0,3.037827E3,8.6070935E2,6.976142E2,1.10219215E2,1.3216432E2,7.8084707E0,1.4793792E0,1.8068358E0,2.7298533E3,3.0797345E2,2.1749062E2,6.4321875E2,3.0165457E2,3.9595966E2,4.7557133E1,6.2662083E1,1.26041885E2,6.1224346E0,5.0283327E0,2.7801375E0,2.6661965E3,6.365677E1,2.995862E2,8.387243E0,9.474189E1,1.2274873E2,4.1219754E2,2.310212E2,2.9604448E1,2.7205014E2,2.9970966E2,9.624998E1,4.5705748E0,4.2986557E1,1.7832588E1,4.4829494E1,2.0807383E0,4.0416965E0,1.7708335E0,1.009304E0,2.5927449E3,7.345174E1,5.9957226E1,3.6995435E0,2.4511853E2,5.4467678E1,2.6774943E0,5.709749E0,6.9532104E1,2.5209791E1,2.206603E0,1.2054213E2,1.6357266E2,2.4862488E2,2.1828502E2,1.2736167E1,2.3742657E0,2.7230183E1,1.9751492E2,7.453521E1,1.774612E2,1.22248474E2,8.287777E1,1.3372208E1,2.0281906E0,2.5423841E0,2.7577898E1,1.540866E1,1.0511557E1,7.321032E0,4.464054E0,4.036544E1,1.0267341E0,1.0540042E0],"tree_param":{"num_deleted":"0","num_feature":"14","num_nodes":"81","size_leaf_vector":"1"}},{"base_weights":[-3.4083832E-2,-1.3666473E-2,-9.058169E-1,-3.6874384E-2,6.277587E-1,-9.4256574E-1,-2.6987186E-1,-2.069719E-2,-7.8402287E-1,9.075703E-1,2.1010116E-1,-9.691598E-1,-2.3550707E-1,-2.4372695E-1,5.0463396E-1,4.1052226E-2,-1.8753405E-1,-8.9635E-1,-2.4419464E-2,9.5299304E-1,-2.817282E-1,-1.5363984E-1,7.1150345E-1,-2.9934487E-1,-6.9663495E-1,-2.170661E-1,1.3393079E-1,2.5546962E-1,-4.160096E-2,5.8490086E-2,-6.089749E-1,-3.1444907E-1,1.12729296E-1,-9.508271E-1,7.023481E-2,-3.4045088E-1,5.5255526E-1,1.0287328E0,4.3764666E-2,1.3360621E-1,-1.5093945E0,9.134453E-1,-2.3521836E-1,1.1589598E-1,-8.411899E-1,2.478311E-2,-1.3029042E-1,-2.2867994E-1,1.18927196E-1,-7.007214E-2,-1.9684945E-1,1.03661045E-1,-1.7337145E-2,-2.9957795E-1,-1.4070033E-1,-2.1495423E-1,2.716857E-1,4.002874E-2,-2.6200205E-1,3.1694555E-1,-1.2731543E-1,-1.14419945E-1,2.5653696E-1,-9.5944025E-2,1.5726936E-1,1.9839108E-1,-6.378275E-1,2.9529023E-1,-6.511307E-2,-6.546821E-1,2.1774966E-1,-8.150585E-3,-2.7523193E-1],"categories":[],"categories_nodes":[],"categories_segments":[],"categories_sizes":[],"default_left":[0,0,1,0,0,1,0,0,0,0,0,1,0,0,0,0,0,0,0,0,0,0,0,0,0,0,0,0,0,0,0,0,0,0,0,0,0,0,0,0,0,0,0,0,0,0,0,0,0,0,0,0,0,0,0,0,0,0,0,0,0,0,0,0,0,0,0,0,0,0,0,0,0],"id":10,"left_children":[1,3,5,7,9,11,13,15,17,19,21,23,25,-1,27,29,31,33,35,37,-1,39,41,-1,43,-1,-1,-1,-1,45,47,49,51,53,55,57,-1,59,61,63,65,67,69,-1,71,-1,-1,-1,-1,-1,-1,-1,-1,-1,-1,-1,-1,-1,-1,-1,-1,-1,-1,-1,-1,-1,-1,-1,-1,-1,-1,-1,-1],"loss_changes":[8.2911224E1,6.780592E1,2.2371063E0,5.3109493E1,1.8397163E1,1.6593246E0,3.4460564E0,4.434E1,7.9238358E0,8.858803E0,1.1984203E1,5.7922363E-2,1.973742E0,0E0,9.200243E-1,3.56459E1,4.434126E1,4.337204E0,8.309079E0,6.3704224E0,0E0,1.521744E1,5.4824524E0,0E0,2.2798314E0,0E0,0E0,0E0,0E0,3.6413025E1,1.2965149E1,2.243898E1,1.3761822E1,1.3001404E0,4.1047306E0,3.1424387E0,0E0,3.9145737E0,3.1575923E0,5.965661E0,1.0538877E1,2.049034E0,1.2136035E1,0E0,6.784134E-1,0E0,0E0,0E0,0E0,0E0,0E0,0E0,0E0,0E0,0E0,0E0,0E0,0E0,0E0,0E0,0E0,0E0,0E0,0E0,0E0,0E0,0E0,0E0,0E0,0E0,0E0,0E0,0E0],"parents":[2147483647,0,0,1,1,2,2,3,3,4,4,5,5,6,6,7,7,8,8,9,9,10,10,11,11,12,12,14,14,15,15,16,16,17,17,18,18,19,19,21,21,22,22,24,24,29,29,30,30,31,31,32,32,33,33,34,34,35,35,37,37,38,38,39,39,40,40,41,41,42,42,44,44],"right_children":[2,4,6,8,10,12,14,16,18,20,22,24,26,-1,28,30,32,34,36,38,-1,40,42,-1,44,-1,-1,-1,-1,46,48,50,52,54,56,58,-1,60,62,64,66,68,70,-1,72,-1,-1,-1,-1,-1,-1,-1,-1,-1,-1,-1,-1,-1,-1,-1,-1,-1,-1,-1,-1,-1,-1,-1,-1,-1,-1,-1,-1],"split_conditions":[6.8816257E-1,9.034755E-1,1.558458E-1,5.256518E-1,4.2807215E-4,2.1104737E-1,2.1674162E-2,1.5447558E-1,4.3864077E-1,4.9058266E-2,5.2509546E-2,1.05931416E-1,2.4604477E-1,-2.4372695E-1,5.152873E-2,5.315657E-1,4.2666954E-1,2.0143661E-1,1.6001625E-1,4.1701838E-1,-2.817282E-1,3.763573E-2,2.5601037E-5,-2.9934487E-1,1.1373645E-1,-2.170661E-1,1.3393079E-1,2.5546962E-1,-4.160096E-2,3.3218708E-2,2.4540232E-5,2.4268991E-1,2.7039094E-2,2.1013863E-1,3.7455983E-2,7.6845638E-3,5.5255526E-1,5.356345E-2,5.2560274E-2,4.7980744E-2,3.2475373E-1,3.8245406E-2,1.8232154E-4,1.1589598E-1,1.7042686E-1,2.478311E-2,-1.3029042E-1,-2.2867994E-1,1.18927196E-1,-7.007214E-2,-1.9684945E-1,1.03661045E-1,-1.7337145E-2,-2.9957795E-1,-1.4070033E-1,-2.1495423E-1,2.716857E-1,4.002874E-2,-2.6200205E-1,3.1694555E-1,-1.2731543E-1,-1.14419945E-1,2.5653696E-1,-9.5944025E-2,1.5726936E-1,1.9839108E-1,-6.378275E-1,2.9529023E-1,-6.511307E-2,-6.546821E-1,2.1774966E-1,-8.150585E-3,-2.7523193E-1],"split_indices":[3,4,4,5,3,2,5,11,12,8,2,2,9,0,2,6,4,6,2,13,0,2,6,0,2,0,0,0,0,0,1,11,5,4,4,3,0,1,2,10,13,3,6,0,13,0,0,0,0,0,0,0,0,0,0,0,0,0,0,0,0,0,0,0,0,0,0,0,0,0,0,0,0],"split_type":[0,0,0,0,0,0,0,0,0,0,0,0,0,0,0,0,0,0,0,0,0,0,0,0,0,0,0,0,0,0,0,0,0,0,0,0,0,0,0,0,0,0,0,0,0,0,0,0,0,0,0,0,0,0,0,0,0,0,0,0,0,0,0,0,0,0,0,0,0,0,0,0,0],"sum_hessian":[4.6580254E3,4.5524165E3,1.0560906E2,4.394363E3,1.5805339E2,9.9383896E1,6.2251635E0,4.302239E3,9.2124E1,9.39429E1,6.411049E1,9.5424095E1,3.9598045E0,3.631967E0,2.5931966E0,3.140599E3,1.16164E3,8.009921E1,1.2024784E1,9.2159966E1,1.782935E0,3.755783E1,2.6552654E1,8.393667E1,1.1487425E1,2.2724566E0,1.6873479E0,1.4743485E0,1.1188481E0,3.0594355E3,8.116351E1,8.164826E2,3.4515738E2,7.584109E1,4.258132E0,1.0982586E1,1.0421978E0,8.4951935E1,7.20803E0,3.1735443E1,5.8223896E0,2.191351E1,4.6391444E0,1.1558355E0,1.033159E1,2.9174688E3,1.4196666E2,7.0635635E1,1.0527877E1,6.615859E2,1.5489674E2,1.4549261E2,1.9966475E2,6.80249E1,7.8161845E0,2.2661805E0,1.9919517E0,6.2099257E0,4.7726607E0,8.362772E1,1.3242148E0,5.0773463E0,2.1306841E0,1.4771102E1,1.696434E1,1.2721717E0,4.550218E0,2.0742737E1,1.1707737E0,1.1131744E0,3.52597E0,1.0010436E0,9.330546E0],"tree_param":{"num_deleted":"0","num_feature":"14","num_nodes":"73","size_leaf_vector":"1"}},{"base_weights":[-2.6804017E-2,-1.187886E-2,-9.281587E-1,-2.9335061E-2,5.309526E-1,-9.65202E-1,-1.2798524E-1,-1.9265331E-2,-9.350713E-1,8.5865796E-1,2.0867635E-1,-2.9766786E-1,-5.8043253E-1,1.3522889E-1,-1.9666612E-1,-5.878574E-3,-7.2461903E-1,-2.966331E-1,-5.248114E-2,9.9838936E-1,-6.577075E-1,-9.6401945E-2,8.7485904E-1,-2.507414E-1,1.0774682E-1,8.6138964E-1,-1.5538069E-2,-9.612928E-2,-8.6477154E-1,1.1910352E-1,-1.6944724E-1,1.0407617E0,-1.6330951E-1,2.2490768E-2,-8.75911E-1,9.8673664E-2,-8.922844E-1,1.0047082E0,1.5949978E-1,2.8674755E-1,-1.497784E-1,-2.1850118E-2,3.7802145E-2,1.4250985E-1,-2.4080817E-1,-2.77084E-1,-1.22612394E-1,3.235159E-1,-1.5226468E-1,-3.40138E-1,-6.8436577E-3,2.966145E-1,-8.344265E-3,-4.1128984E-1,2.1222995E-1,3.1528896E-1,3.7567183E-2,1.5775374E-1,-1.23786345E-1],"categories":[],"categories_nodes":[],"categories_segments":[],"categories_sizes":[],"default_left":[0,0,1,0,0,1,0,0,0,0,0,0,0,0,0,0,0,0,0,0,0,0,0,0,0,0,0,0,0,0,0,0,0,0,0,0,0,0,0,0,0,0,0,0,0,0,0,0,0,0,0,0,0,0,0,0,0,0,0],"id":11,"left_children":[1,3,5,7,9,11,13,15,17,19,21,-1,23,-1,-1,25,27,-1,29,31,33,35,37,-1,-1,39,41,43,45,-1,-1,47,-1,-1,49,51,53,55,57,-1,-1,-1,-1,-1,-1,-1,-1,-1,-1,-1,-1,-1,-1,-1,-1,-1,-1,-1,-1],"loss_changes":[6.083244E1,4.218333E1,2.0597382E0,3.9312958E1,1.446888E1,1.5448761E-1,1.6425741E0,4.027669E1,2.1946526E0,1.5159767E1,1.4564837E1,0E0,1.984448E0,0E0,0E0,3.5093796E1,6.914894E0,0E0,1.0935211E0,4.6894646E0,1.0853529E0,7.815209E0,1.9277935E0,0E0,0E0,6.4064064E0,3.360353E1,6.681409E0,1.3624039E0,0E0,0E0,4.143257E0,0E0,0E0,1.0726659E0,4.6289573E0,8.548613E0,6.346836E-1,1.1899422E0,0E0,0E0,0E0,0E0,0E0,0E0,0E0,0E0,0E0,0E0,0E0,0E0,0E0,0E0,0E0,0E0,0E0,0E0,0E0,0E0],"parents":[2147483647,0,0,1,1,2,2,3,3,4,4,5,5,6,6,7,7,8,8,9,9,10,10,12,12,15,15,16,16,18,18,19,19,20,20,21,21,22,22,25,25,26,26,27,27,28,28,31,31,34,34,35,35,36,36,37,37,38,38],"right_children":[2,4,6,8,10,12,14,16,18,20,22,-1,24,-1,-1,26,28,-1,30,32,34,36,38,-1,-1,40,42,44,46,-1,-1,48,-1,-1,50,52,54,56,58,-1,-1,-1,-1,-1,-1,-1,-1,-1,-1,-1,-1,-1,-1,-1,-1,-1,-1,-1,-1],"split_conditions":[7.188908E-1,9.034755E-1,1.842712E-1,6.7317384E-1,2.9126877E-1,1.05931416E-1,1.522939E-4,1.8493311E-2,4.8088753E-1,4.7819726E-2,5.265966E-2,-2.9766786E-1,7.357737E-4,1.3522889E-1,-1.9666612E-1,5.513782E-2,1.3339976E-4,-2.966331E-1,3.0191573E-3,4.9058266E-2,3.4285378E-2,2.3023266E-2,1.9592648E-2,-2.507414E-1,1.0774682E-1,3.67645E-2,2.184287E-6,5.9373755E-2,1.9630468E-1,1.1910352E-1,-1.6944724E-1,5.356345E-2,-1.6330951E-1,2.2490768E-2,2.1278225E-1,9.486794E-2,5.5425312E-2,8.1063464E-2,1.5745339E-1,2.8674755E-1,-1.497784E-1,-2.1850118E-2,3.7802145E-2,1.4250985E-1,-2.4080817E-1,-2.77084E-1,-1.22612394E-1,3.235159E-1,-1.5226468E-1,-3.40138E-1,-6.8436577E-3,2.966145E-1,-8.344265E-3,-4.1128984E-1,2.1222995E-1,3.1528896E-1,3.7567183E-2,1.5775374E-1,-1.23786345E-1],"split_indices":[3,4,2,5,13,2,1,7,13,3,2,0,8,0,0,13,4,0,3,8,9,5,3,0,0,4,0,7,8,0,0,1,0,0,13,9,5,2,11,0,0,0,0,0,0,0,0,0,0,0,0,0,0,0,0,0,0,0,0],"split_type":[0,0,0,0,0,0,0,0,0,0,0,0,0,0,0,0,0,0,0,0,0,0,0,0,0,0,0,0,0,0,0,0,0,0,0,0,0,0,0,0,0,0,0,0,0,0,0,0,0,0,0,0,0,0,0,0,0,0,0],"sum_hessian":[4.521716E3,4.449059E3,7.265694E1,4.311362E3,1.3769742E2,6.9245056E1,3.4118757E0,4.2649663E3,4.6395462E1,6.744841E1,7.0249016E1,6.3225674E1,6.0193844E0,1.6964432E0,1.7154324E0,4.1865195E3,7.844673E1,4.3620823E1,2.7746418E0,6.2070293E1,5.378118E0,4.877006E1,2.1478952E1,4.8198485E0,1.1995361E0,4.5143898E1,4.1413755E3,1.4611203E1,6.3835526E1,1.5978813E0,1.1767604E0,6.0727768E1,1.342522E0,1.3847783E0,3.99334E0,3.9872974E1,8.897087E0,1.7836805E1,3.6421473E0,4.2492264E1,2.6516366E0,2.9483909E3,1.1929847E3,8.260992E0,6.35021E0,5.5632576E1,8.2029505E0,5.9583378E1,1.1443931E0,2.8137465E0,1.1795933E0,4.1132326E0,3.5759743E1,6.9580374E0,1.9390504E0,1.6760347E1,1.0764577E0,2.2696846E0,1.3724627E0],"tree_param":{"num_deleted":"0","num_feature":"14","num_nodes":"59","size_leaf_vector":"1"}},{"base_weights":[-1.9830827E-2,-1.0277035E-3,-5.636648E-1,2.8105278E-2,-3.0076674E-1,-3.589939E-1,-9.149853E-1,-2.7443308E-2,2.2595339E-1,1.9222182E-1,-4.2823115E-1,-2.0754021E-1,-6.950424E-1,-2.9531473E-1,-3.8568085E-1,7.543847E-2,-1.5145425E-1,4.3044943E-1,-2.483012E-2,3.834444E-1,-8.0762994E-1,-6.007474E-1,-2.5768572E-1,-3.0702066E-1,4.3711713E-1,-8.652949E-2,-8.707653E-1,2.1283829E-1,-2.4126162E-1,4.601996E-1,8.146588E-3,-3.8279957E-1,-5.8206767E-2,7.22862E-1,2.3488559E-1,4.8540604E-1,-1.9822362E-1,6.061896E-1,-5.4229945E-1,3.823745E-2,-9.194031E-1,-1.1394492E-1,-8.819525E-1,2.0519789E-1,-4.36794E-1,-3.580473E-1,6.327991E-1,1.4712726E0,-4.2078477E-1,-6.7338955E-1,6.4962775E-1,-9.0794224E-1,-1.7981227E-2,-3.6270854E-1,2.9418257E-1,1.6947876E-1,-1.9023812E-1,-1.10065505E-1,4.052218E-2,-1.426468E-1,-2.071017E-2,-5.9592377E-2,1.9474557E-2,2.4641147E-1,-5.392853E-2,-1.7020575E-3,1.7226681E-1,-1.24751896E-1,1.9879766E-1,-2.6339185E-3,-1.20311536E-1,1.2668538E-1,5.266718E-1,-2.1763244E-1,2.5117412E-1,-3.008421E-1,-8.56229E-3,-1.3227694E-1,1.8142807E-1,-3.5415906E-2,-3.068272E-1,1.714243E-1,-1.481252E-1,-8.655535E-2,-2.4335983E-1,-7.722983E-2,-2.1581021E-1,3.112308E-1,-2.864409E-2,1.13283835E-1,7.010901E-1,7.180666E-2,-2.5721246E-1,-1.0974186E-2,-2.4998307E-1,3.7350368E-1,-7.42536E-2,-2.8372526E-1,-2.3576222E-2,-6.016716E-3,-1.5623693E-1],"categories":[],"categories_nodes":[],"categories_segments":[],"categories_sizes":[],"default_left":[0,0,0,0,0,0,1,0,0,0,0,0,0,0,0,0,0,0,0,0,0,0,0,0,0,0,0,0,0,0,0,0,0,0,0,0,0,0,0,0,0,0,0,0,0,0,0,0,0,0,0,0,0,0,0,0,0,0,0,0,0,0,0,0,0,0,0,0,0,0,0,0,0,0,0,0,0,0,0,0,0,0,0,0,0,0,0,0,0,0,0,0,0,0,0,0,0,0,0,0,0],"id":12,"left_children":[1,3,5,7,9,11,13,15,17,19,21,23,25,-1,27,29,31,33,35,37,39,41,43,45,47,49,51,53,-1,55,57,59,61,63,65,67,69,71,73,-1,75,77,79,81,83,85,87,89,91,93,95,97,-1,99,-1,-1,-1,-1,-1,-1,-1,-1,-1,-1,-1,-1,-1,-1,-1,-1,-1,-1,-1,-1,-1,-1,-1,-1,-1,-1,-1,-1,-1,-1,-1,-1,-1,-1,-1,-1,-1,-1,-1,-1,-1,-1,-1,-1,-1,-1,-1],"loss_changes":[4.5544655E1,3.7610706E1,1.03744545E1,4.3148983E1,2.4057762E1,4.726471E0,1.6093216E0,3.912783E1,4.4148792E1,1.5427989E1,8.773781E0,4.456252E0,3.0582943E0,0E0,2.1552477E0,4.339995E1,2.9974873E1,2.6943687E1,3.4381012E1,1.4156067E1,1.4776735E0,2.0448399E1,1.2886769E1,3.054625E0,8.978521E0,3.754002E0,6.277065E-1,2.1453912E0,0E0,2.8955948E1,6.801802E1,1.1579594E1,1.7169437E1,1.7000526E1,2.3316872E1,1.6023542E1,1.1136679E1,1.0783594E1,4.0265565E0,0E0,8.443289E-1,1.3452869E1,1.0097496E1,1.14791565E1,5.9621735E0,1.8714967E0,1.100495E0,3.3729515E0,1.9136087E0,4.5443296E-1,2.39892E0,6.0191727E-1,0E0,1.544855E-1,0E0,0E0,0E0,0E0,0E0,0E0,0E0,0E0,0E0,0E0,0E0,0E0,0E0,0E0,0E0,0E0,0E0,0E0,0E0,0E0,0E0,0E0,0E0,0E0,0E0,0E0,0E0,0E0,0E0,0E0,0E0,0E0,0E0,0E0,0E0,0E0,0E0,0E0,0E0,0E0,0E0,0E0,0E0,0E0,0E0,0E0,0E0],"parents":[2147483647,0,0,1,1,2,2,3,3,4,4,5,5,6,6,7,7,8,8,9,9,10,10,11,11,12,12,14,14,15,15,16,16,17,17,18,18,19,19,20,20,21,21,22,22,23,23,24,24,25,25,26,26,27,27,29,29,30,30,31,31,32,32,33,33,34,34,35,35,36,36,37,37,38,38,40,40,41,41,42,42,43,43,44,44,45,45,46,46,47,47,48,48,49,49,50,50,51,51,53,53],"right_children":[2,4,6,8,10,12,14,16,18,20,22,24,26,-1,28,30,32,34,36,38,40,42,44,46,48,50,52,54,-1,56,58,60,62,64,66,68,70,72,74,-1,76,78,80,82,84,86,88,90,92,94,96,98,-1,100,-1,-1,-1,-1,-1,-1,-1,-1,-1,-1,-1,-1,-1,-1,-1,-1,-1,-1,-1,-1,-1,-1,-1,-1,-1,-1,-1,-1,-1,-1,-1,-1,-1,-1,-1,-1,-1,-1,-1,-1,-1,-1,-1,-1,-1,-1,-1],"split_conditions":[5.300741E-1,3.962027E-3,7.3492485E-1,2.184287E-6,2.404077E-3,3.6527604E-2,1.05931416E-1,4.079863E-2,5.079551E-2,1.1162278E-2,7.871925E-2,2.3751065E-2,1.1653987E-5,-2.9531473E-1,3.5995026E-6,2.0314613E-1,2.0544967E-2,2.1871075E-1,3.3315957E-1,1.5347801E-1,3.5995026E-6,4.1387804E-2,4.9409803E-2,3.296289E-2,3.6327273E-2,7.8584686E-2,7.011696E-4,1.3792493E-4,-2.4126162E-1,4.9058266E-2,6.030813E-4,9.666623E-2,3.0246578E-4,2.4465286E-5,8.455893E-2,4.9292266E-1,5.2872438E-2,8.9381987E-1,1.9997905E-3,3.823745E-2,7.744394E-2,8.3408386E-1,4.7854386E-2,2.3743963E-2,7.096416E-2,1.6577427E-1,4.296591E-2,3.3460017E-2,6.0248755E-2,1.3157387E-1,5.152873E-2,5.7113137E-2,-1.7981227E-2,2.0373834E-2,2.9418257E-1,1.6947876E-1,-1.9023812E-1,-1.10065505E-1,4.052218E-2,-1.426468E-1,-2.071017E-2,-5.9592377E-2,1.9474557E-2,2.4641147E-1,-5.392853E-2,-1.7020575E-3,1.7226681E-1,-1.24751896E-1,1.9879766E-1,-2.6339185E-3,-1.20311536E-1,1.2668538E-1,5.266718E-1,-2.1763244E-1,2.5117412E-1,-3.008421E-1,-8.56229E-3,-1.3227694E-1,1.8142807E-1,-3.5415906E-2,-3.068272E-1,1.714243E-1,-1.481252E-1,-8.655535E-2,-2.4335983E-1,-7.722983E-2,-2.1581021E-1,3.112308E-1,-2.864409E-2,1.13283835E-1,7.010901E-1,7.180666E-2,-2.5721246E-1,-1.0974186E-2,-2.4998307E-1,3.7350368E-1,-7.42536E-2,-2.8372526E-1,-2.3576222E-2,-6.016716E-3,-1.5623693E-1],"split_indices":[3,0,3,0,4,5,2,5,1,5,3,6,1,0,1,13,6,9,13,11,1,4,1,5,6,5,7,8,0,8,4,2,2,7,6,2,10,1,5,0,7,2,2,0,10,11,10,6,4,4,2,6,0,4,0,0,0,0,0,0,0,0,0,0,0,0,0,0,0,0,0,0,0,0,0,0,0,0,0,0,0,0,0,0,0,0,0,0,0,0,0,0,0,0,0,0,0,0,0,0,0],"split_type":[0,0,0,0,0,0,0,0,0,0,0,0,0,0,0,0,0,0,0,0,0,0,0,0,0,0,0,0,0,0,0,0,0,0,0,0,0,0,0,0,0,0,0,0,0,0,0,0,0,0,0,0,0,0,0,0,0,0,0,0,0,0,0,0,0,0,0,0,0,0,0,0,0,0,0,0,0,0,0,0,0,0,0,0,0,0,0,0,0,0,0,0,0,0,0,0,0,0,0,0,0],"sum_hessian":[4.452963E3,4.3051147E3,1.4784796E2,3.9245742E3,3.8054074E2,9.469989E1,5.3148064E1,3.0649175E3,8.5965656E2,7.807303E1,3.024677E2,6.6394264E1,2.830563E1,4.6227417E1,6.9206467E0,1.6753816E3,1.389536E3,4.7313358E2,3.86523E2,6.605621E1,1.2016814E1,1.4911101E2,1.5335669E2,5.797204E1,8.422222E0,6.6768193E0,2.162881E1,3.0501604E0,3.8704865E0,2.4852545E2,1.4268562E3,3.982873E2,9.9124866E2,1.8853476E2,2.8459882E2,9.757998E1,2.8894305E2,5.3523094E1,1.2533121E1,1.2680494E0,1.0748764E1,5.5111343E1,9.399967E1,4.2744095E1,1.106126E2,5.5573742E1,2.398299E0,3.4946458E0,4.927577E0,3.7625787E0,2.9142408E0,2.0566072E1,1.0627376E0,2.0448515E0,1.0053089E0,2.2725992E2,2.1265535E1,3.603225E2,1.0665337E3,3.0706232E2,9.122497E1,4.6278116E2,5.284675E2,1.7006447E2,1.8470299E1,1.671137E2,1.17485115E2,1.5816188E1,8.176379E1,1.4993556E2,1.3900749E2,4.731926E1,6.2038336E0,1.1482857E1,1.0502642E0,9.713694E0,1.035071E0,3.814404E1,1.6967302E1,1.4915879E1,7.908379E1,2.8167898E1,1.4576199E1,8.050193E1,3.0110668E1,4.4808636E1,1.0765104E1,1.2688272E0,1.1294719E0,2.1785765E0,1.3160694E0,2.141425E0,2.786152E0,1.0017071E0,2.7608714E0,1.5186412E0,1.3955997E0,1.953516E1,1.0309126E0,1.001309E0,1.0435425E0],"tree_param":{"num_deleted":"0","num_feature":"14","num_nodes":"101","size_leaf_vector":"1"}},{"base_weights":[-1.5936887E-2,-7.166828E-3,-8.714158E-1,3.2350835E-3,-7.190399E-1,-2.9304615E-1,-3.2938734E-1,-2.3062583E-2,2.571145E-1,-7.7314234E-1,4.1916248E-1,-6.826713E-1,3.1301314E-1,2.2159128E-2,-2.2783694E-1,4.930545E-1,-3.665779E-1,-8.17777E-1,1.3537341E-1,-1.8340248E-1,4.3985686E-1,-2.4351667E-1,-1.27806375E-2,3.553205E-1,-1.8137097E-1,5.536977E-2,-2.5930357E-1,-5.2364177E-1,-7.081245E-2,5.618767E-1,-1.1237156E0,-4.8382193E-1,1.2654531E0,-2.973485E-1,-5.3906983E-1,-3.8734355E-3,6.2086064E-2,-9.228913E-2,1.9014876E-1,-1.6358581E-1,4.9703616E-1,9.722473E-2,-6.042214E-2,9.705181E-2,2.9023528E-1,-4.5130834E-1,-1.3259786E-1,4.7043198E-1,-1.6673888E-1,-7.94534E-3,7.145436E-1,-2.0256907E-1,2.2050624E-1],"categories":[],"categories_nodes":[],"categories_segments":[],"categories_sizes":[],"default_left":[0,0,1,0,0,0,0,0,0,0,0,0,0,0,0,0,0,0,0,0,0,0,0,0,0,0,0,0,0,0,0,0,0,0,0,0,0,0,0,0,0,0,0,0,0,0,0,0,0,0,0,0,0],"id":13,"left_children":[1,3,5,7,9,-1,11,13,15,17,19,21,23,25,27,29,31,33,-1,-1,-1,-1,-1,-1,-1,35,37,39,41,43,45,47,49,-1,51,-1,-1,-1,-1,-1,-1,-1,-1,-1,-1,-1,-1,-1,-1,-1,-1,-1,-1],"loss_changes":[3.253223E1,3.1798407E1,2.192154E0,2.8268047E1,4.132416E0,0E0,2.181878E0,3.553391E1,5.8660633E1,3.6146584E0,4.623858E0,4.5356488E-1,3.7246165E0,2.9399323E1,3.220333E1,3.2761406E1,2.1592964E1,2.2518501E0,0E0,0E0,0E0,0E0,0E0,0E0,0E0,2.9114481E1,1.4522776E1,1.2255165E1,2.3508205E1,2.6527924E1,2.480999E0,1.608653E1,1.1061332E1,0E0,4.7126756E0,0E0,0E0,0E0,0E0,0E0,0E0,0E0,0E0,0E0,0E0,0E0,0E0,0E0,0E0,0E0,0E0,0E0,0E0],"parents":[2147483647,0,0,1,1,2,2,3,3,4,4,6,6,7,7,8,8,9,9,10,10,11,11,12,12,13,13,14,14,15,15,16,16,17,17,25,25,26,26,27,27,28,28,29,29,30,30,31,31,32,32,34,34],"right_children":[2,4,6,8,10,-1,12,14,16,18,20,22,24,26,28,30,32,34,-1,-1,-1,-1,-1,-1,-1,36,38,40,42,44,46,48,50,-1,52,-1,-1,-1,-1,-1,-1,-1,-1,-1,-1,-1,-1,-1,-1,-1,-1,-1,-1],"split_conditions":[7.188908E-1,6.030411E-1,1.05931416E-1,3.0952153E-1,1.7260247E-1,-2.9304615E-1,3.67645E-2,1.3715313E-1,3.8245406E-2,2.0163211E-1,2.4540232E-5,9.570297E-3,5.6934386E-2,3.962027E-3,1.5924194E-1,6.95146E-2,4.62607E-3,9.948275E-2,1.3537341E-1,-1.8340248E-1,4.3985686E-1,-2.4351667E-1,-1.27806375E-2,3.553205E-1,-1.8137097E-1,2.4350952E-2,9.1181237E-1,8.1630695E-1,2.0501412E-2,2.1230064E-4,4.412381E-1,2.774571E-1,4.5219254E-1,-2.973485E-1,1.8710582E-1,-3.8734355E-3,6.2086064E-2,-9.228913E-2,1.9014876E-1,-1.6358581E-1,4.9703616E-1,9.722473E-2,-6.042214E-2,9.705181E-2,2.9023528E-1,-4.5130834E-1,-1.3259786E-1,4.7043198E-1,-1.6673888E-1,-7.94534E-3,7.145436E-1,-2.0256907E-1,2.2050624E-1],"split_indices":[3,6,2,6,3,0,4,5,3,5,1,5,4,0,4,2,1,8,0,0,0,0,0,0,0,6,2,8,3,2,13,13,13,0,4,0,0,0,0,0,0,0,0,0,0,0,0,0,0,0,0,0,0],"split_type":[0,0,0,0,0,0,0,0,0,0,0,0,0,0,0,0,0,0,0,0,0,0,0,0,0,0,0,0,0,0,0,0,0,0,0,0,0,0,0,0,0,0,0,0,0,0,0,0,0,0,0,0,0],"sum_hessian":[4.33596E3,4.2929585E3,4.300147E1,4.232114E3,6.0844322E1,3.5329098E1,7.6723723E0,3.8357078E3,3.964061E2,5.838961E1,2.4547122E0,4.9096527E0,2.7627199E0,3.1425984E3,6.931095E2,2.87758E2,1.0864808E2,5.665632E1,1.7332928E0,1.4468306E0,1.0078816E0,3.8626795E0,1.0469731E0,1.267883E0,1.4948368E0,2.8116467E3,3.309515E2,2.3953517E2,4.5357437E2,2.7663477E2,1.1123241E1,1.020224E2,6.625675E0,3.3351772E1,2.3304544E1,1.9390931E3,8.7255365E2,3.1458505E2,1.6366442E1,2.3792332E2,1.6118484E0,1.1235412E2,3.4122025E2,1.753644E2,1.0127038E2,6.3634524E0,4.7597895E0,2.7528863E0,9.9269516E1,3.5238621E0,3.101813E0,2.1479128E1,1.8254157E0],"tree_param":{"num_deleted":"0","num_feature":"14","num_nodes":"53","size_leaf_vector":"1"}},{"base_weights":[-1.369888E-2,-6.2791165E-3,-8.0230725E-1,2.429725E-4,-8.2822156E-1,-8.774264E-1,-4.2513758E-1,6.413984E-3,-8.837921E-1,-2.8954226E-1,-2.8093472E-1,-9.0447533E-1,-4.802889E-3,2.9184175E-1,-7.428029E-1,1.5000643E-2,-6.1612993E-1,-2.910324E-1,7.669013E-2,1.2119701E-1,-2.2512491E-1,-3.832346E-1,-2.949136E-1,-3.0158416E-3,-2.5638118E-1,2.3263559E-2,-6.487221E-1,-8.2776517E-1,3.7153542E-2,-6.4558424E-2,1.13076724E-1,-4.1263598E-1,2.0399545E-1,-2.4314885E-1,1.19027056E-1,1.9438937E-1,4.493334E-3,-1.1589174E-1,-2.7810118E-1,-1.5268809E-1,-2.737776E-1,4.843965E-1,-8.457799E-2,-1.721341E-1,-7.3772236E-3],"categories":[],"categories_nodes":[],"categories_segments":[],"categories_sizes":[],"default_left":[0,0,1,0,0,1,0,0,0,0,0,0,0,0,0,0,0,0,0,0,0,0,0,0,0,0,0,0,0,0,0,0,0,0,0,0,0,0,0,0,0,0,0,0,0],"id":14,"left_children":[1,3,5,7,9,11,13,15,17,-1,19,21,-1,-1,23,25,27,-1,29,31,-1,33,-1,-1,-1,35,37,39,41,-1,-1,43,-1,-1,-1,-1,-1,-1,-1,-1,-1,-1,-1,-1,-1],"loss_changes":[2.4997833E1,2.2699003E1,7.552109E-1,2.292867E1,2.226736E0,7.373638E-1,4.5211306E0,2.23204E1,2.4898548E0,0E0,1.6166377E0,9.0377045E-1,0E0,0E0,6.0885143E-1,2.2599133E1,7.8849945E0,0E0,3.7285554E-1,1.8358605E0,0E0,2.2326965E0,0E0,0E0,0E0,2.1048285E1,3.3421116E0,6.9706535E-1,7.9336996E0,0E0,0E0,1.9154221E-1,0E0,0E0,0E0,0E0,0E0,0E0,0E0,0E0,0E0,0E0,0E0,0E0,0E0],"parents":[2147483647,0,0,1,1,2,2,3,3,4,4,5,5,6,6,7,7,8,8,10,10,11,11,14,14,15,15,16,16,18,18,19,19,21,21,25,25,26,26,27,27,28,28,31,31],"right_children":[2,4,6,8,10,12,14,16,18,-1,20,22,-1,-1,24,26,28,-1,30,32,-1,34,-1,-1,-1,36,38,40,42,-1,-1,44,-1,-1,-1,-1,-1,-1,-1,-1,-1,-1,-1,-1,-1],"split_conditions":[4.2146053E-2,7.188908E-1,1.0851905E-1,6.7317384E-1,1.05931416E-1,1.932231E-1,2.9830815E-2,8.7301314E-1,4.0577537E-1,-2.8954226E-1,1.522939E-4,5.4188497E-2,-4.802889E-3,2.9184175E-1,1.3249104E-1,6.030411E-1,3.206452E-2,-2.910324E-1,8.7209645E-4,3.67645E-2,-2.2512491E-1,5.1591996E-2,-2.949136E-1,-3.0158416E-3,-2.5638118E-1,2.3184054E-2,7.490182E-1,9.080344E-1,3.632622E-2,-6.4558424E-2,1.13076724E-1,6.8393967E-4,2.0399545E-1,-2.4314885E-1,1.19027056E-1,1.9438937E-1,4.493334E-3,-1.1589174E-1,-2.7810118E-1,-1.5268809E-1,-2.737776E-1,4.843965E-1,-8.457799E-2,-1.721341E-1,-7.3772236E-3],"split_indices":[7,3,0,5,2,5,10,8,9,0,1,7,0,0,0,6,6,0,6,4,0,7,0,0,0,9,6,8,6,0,0,5,0,0,0,0,0,0,0,0,0,0,0,0,0],"split_type":[0,0,0,0,0,0,0,0,0,0,0,0,0,0,0,0,0,0,0,0,0,0,0,0,0,0,0,0,0,0,0,0,0,0,0,0,0,0,0,0,0,0,0,0,0],"sum_hessian":[4.2720547E3,4.2332334E3,3.882117E1,4.2008994E3,3.233431E1,3.1267435E1,7.553735E0,4.172764E3,2.8135258E1,2.5253044E1,7.0812626E0,3.026705E1,1.0003865E0,1.0167933E0,6.5369415E0,4.1169556E3,5.5808666E1,2.5806112E1,2.329145E0,4.2138033E0,2.8674593E0,4.7346363E0,2.5532413E1,1.0096377E0,5.527304E0,4.0672852E3,4.96701E1,4.1951225E1,1.3857442E1,1.3246063E0,1.0045388E0,2.2887847E0,1.9250187E0,3.0337229E0,1.7009134E0,5.223008E1,4.0150552E3,2.6792902E1,2.28772E1,1.0287532E1,3.1663692E1,1.6482605E0,1.2209182E1,1.2790065E0,1.0097783E0],"tree_param":{"num_deleted":"0","num_feature":"14","num_nodes":"45","size_leaf_vector":"1"}},{"base_weights":[-1.1175894E-2,-3.6079276E-2,1.9031067E-1,9.110217E-3,-1.8472788E-1,3.919247E-1,-7.832394E-2,-1.005955E-1,6.842066E-2,-8.418381E-2,-3.9435476E-1,5.092395E-1,-3.662537E-1,-4.7346777E-1,1.438312E-1,-3.4410205E-1,-6.162279E-4,3.302992E-1,1.8710343E-2,-1.5894508E-1,3.3170146E-1,-5.6356087E-2,-5.38594E-1,8.4184384E-1,3.2740697E-1,-6.401889E-1,7.800416E-1,-5.577605E-1,4.265183E-1,-7.4785866E-2,5.2153105E-1,5.220445E-1,-4.06537E-1,4.1391242E-2,-6.0267335E-1,1.0699598E-2,4.302265E-1,5.4589756E-2,-7.221931E-1,1.562509E-3,-3.8314047E-1,2.0768838E-1,1.4773366E0,-1.0234978E0,3.9034203E-2,-6.4311934E-1,6.569888E-2,8.8327664E-1,-2.5248495E-1,2.7720405E-2,6.5116525E-1,-3.0133852E-1,-1.7049062E0,3.0319205E-1,2.1685494E-1,-6.093902E-1,3.0206704E-1,8.6347485E-1,-2.515481E-1,-8.8497204E-1,2.8980292E-2,3.5911316E-1,1.2639766E0,2.6922777E-1,-2.426162E-1,-1.9818221E-1,-3.1524383E-2,1.8622909E-2,-3.7230268E-1,-1.9734366E-1,2.880761E-1,1.4302912E-1,-8.833964E-2,1.478765E-1,-1.539392E-1,5.1622447E-2,-1.6043069E-2,-2.714616E-1,1.03766225E-1,-1.7264417E-1,2.9344734E-2,-1.3981538E-1,1.09824315E-1,2.6139373E-2,4.0594238E-1,6.0845935E-1,-4.8170548E-2,-3.3683565E-1,-7.570824E-2,-5.523466E-2,1.4411126E-1,-2.2351204E-1,-1.0840504E-1,-1.728221E-1,1.4916107E-1,2.884065E-1,4.4437844E-2,-3.2911483E-2,3.1580874E-1,2.1212982E-1,-4.2617348E-1,-1.7075805E-1,9.666911E-2,-6.445563E-1,-6.1816823E-2,1.965936E-1,-1.1869894E-1,-7.8835554E-2,-2.4375314E-1,4.0775838E-1,-6.011145E-2,1.0200545E-1,-3.9198425E-1,1.3849549E-1,-7.32442E-2,3.4071648E-1,4.559437E-2,4.6995923E-1,-2.0513076E-2],"categories":[],"categories_nodes":[],"categories_segments":[],"categories_sizes":[],"default_left":[1,0,0,0,0,0,0,0,0,0,0,0,0,0,0,0,0,0,0,0,0,0,1,0,0,0,0,0,0,0,0,0,0,0,0,0,0,0,0,0,0,0,0,0,0,1,0,0,0,0,0,0,0,0,0,0,0,0,0,0,0,0,0,0,0,0,0,0,0,0,0,0,0,0,0,0,0,0,0,0,0,0,0,0,0,0,0,0,0,0,0,0,0,0,0,0,0,0,0,0,0,0,0,0,0,0,0,0,0,0,0,0,0,0,0,0,0,0,0],"id":15,"left_children":[1,3,5,7,9,11,13,15,17,19,21,23,25,27,29,31,33,35,37,39,41,43,45,47,49,51,53,55,57,59,61,63,65,67,69,71,73,75,77,79,81,83,85,87,89,91,93,95,-1,97,99,101,103,-1,105,107,-1,109,-1,111,113,115,117,-1,-1,-1,-1,-1,-1,-1,-1,-1,-1,-1,-1,-1,-1,-1,-1,-1,-1,-1,-1,-1,-1,-1,-1,-1,-1,-1,-1,-1,-1,-1,-1,-1,-1,-1,-1,-1,-1,-1,-1,-1,-1,-1,-1,-1,-1,-1,-1,-1,-1,-1,-1,-1,-1,-1,-1],"loss_changes":[2.1246271E1,2.5313427E1,2.5257978E1,1.8815165E1,1.8482864E1,2.3868492E1,1.7671688E1,2.470483E1,2.4426657E1,1.8552664E1,1.383992E1,1.3694458E1,1.1885119E1,5.7304726E0,1.0701708E1,1.6185078E1,1.82444E1,9.556225E0,4.200027E1,1.8173702E1,1.2619974E1,7.9935913E0,1.2630188E1,6.3939056E0,1.4631239E1,1.0242776E1,7.476487E-1,5.9965153E0,4.4645715E0,6.9753456E0,5.2699757E0,1.0865233E1,2.1075096E1,1.7965134E1,4.6863575E0,1.0427922E1,1.3739857E1,1.9135971E1,1.4552441E1,1.6458366E1,1.3259605E1,1.1380096E1,8.196552E0,3.1206512E-1,7.911647E0,4.612709E0,8.676081E0,4.4238396E0,0E0,1.1306737E1,9.409615E0,4.163888E0,4.200485E0,0E0,1.1820219E0,4.371748E0,0E0,3.1846929E0,0E0,5.308335E0,8.88699E0,6.3171215E0,3.38165E0,0E0,0E0,0E0,0E0,0E0,0E0,0E0,0E0,0E0,0E0,0E0,0E0,0E0,0E0,0E0,0E0,0E0,0E0,0E0,0E0,0E0,0E0,0E0,0E0,0E0,0E0,0E0,0E0,0E0,0E0,0E0,0E0,0E0,0E0,0E0,0E0,0E0,0E0,0E0,0E0,0E0,0E0,0E0,0E0,0E0,0E0,0E0,0E0,0E0,0E0,0E0,0E0,0E0,0E0,0E0,0E0],"parents":[2147483647,0,0,1,1,2,2,3,3,4,4,5,5,6,6,7,7,8,8,9,9,10,10,11,11,12,12,13,13,14,14,15,15,16,16,17,17,18,18,19,19,20,20,21,21,22,22,23,23,24,24,25,25,26,26,27,27,28,28,29,29,30,30,31,31,32,32,33,33,34,34,35,35,36,36,37,37,38,38,39,39,40,40,41,41,42,42,43,43,44,44,45,45,46,46,47,47,49,49,50,50,51,51,52,52,54,54,55,55,57,57,59,59,60,60,61,61,62,62],"right_children":[2,4,6,8,10,12,14,16,18,20,22,24,26,28,30,32,34,36,38,40,42,44,46,48,50,52,54,56,58,60,62,64,66,68,70,72,74,76,78,80,82,84,86,88,90,92,94,96,-1,98,100,102,104,-1,106,108,-1,110,-1,112,114,116,118,-1,-1,-1,-1,-1,-1,-1,-1,-1,-1,-1,-1,-1,-1,-1,-1,-1,-1,-1,-1,-1,-1,-1,-1,-1,-1,-1,-1,-1,-1,-1,-1,-1,-1,-1,-1,-1,-1,-1,-1,-1,-1,-1,-1,-1,-1,-1,-1,-1,-1,-1,-1,-1,-1,-1,-1],"split_conditions":[7.6181513E-1,1.605873E-1,1.8269569E-2,3.5995026E-6,9.196931E-3,4.014139E-2,2.2900897E-1,2.0544967E-2,2.6664653E-1,1.6001625E-1,2.5519624E-1,3.1018036E-4,2.8614461E-2,1.145688E-1,6.1745834E-2,2.6167262E-2,5.315657E-1,5.4407036E-1,9.363759E-1,5.14354E-2,4.8088753E-1,6.633238E-2,7.014502E-2,3.8075373E-1,6.010223E-5,1.7120257E-2,6.1164115E-2,2.184287E-6,5.3537067E-2,6.195932E-2,4.4619534E-4,5.497909E-1,2.4581227E-1,3.593791E-1,2.304765E-1,4.1921265E-2,4.1723284E-3,4.1387804E-2,5.3360034E-4,2.1138422E-2,1.3529484E-3,2.2779979E-1,2.5075012E-1,1.5083878E-1,1.00874044E-4,2.6478148E-5,3.0835578E-1,4.8175834E-2,-2.5248495E-1,4.028231E-1,2.6556176E-1,1.6830481E-3,7.309417E-2,3.0319205E-1,2.4916415E-1,1.9867878E-2,3.0206704E-1,1.6597272E-1,-2.515481E-1,2.8540365E-2,2.1760295E-1,1.473799E-4,4.1387804E-2,2.6922777E-1,-2.426162E-1,-1.9818221E-1,-3.1524383E-2,1.8622909E-2,-3.7230268E-1,-1.9734366E-1,2.880761E-1,1.4302912E-1,-8.833964E-2,1.478765E-1,-1.539392E-1,5.1622447E-2,-1.6043069E-2,-2.714616E-1,1.03766225E-1,-1.7264417E-1,2.9344734E-2,-1.3981538E-1,1.09824315E-1,2.6139373E-2,4.0594238E-1,6.0845935E-1,-4.8170548E-2,-3.3683565E-1,-7.570824E-2,-5.523466E-2,1.4411126E-1,-2.2351204E-1,-1.0840504E-1,-1.728221E-1,1.4916107E-1,2.884065E-1,4.4437844E-2,-3.2911483E-2,3.1580874E-1,2.1212982E-1,-4.2617348E-1,-1.7075805E-1,9.666911E-2,-6.445563E-1,-6.1816823E-2,1.965936E-1,-1.1869894E-1,-7.8835554E-2,-2.4375314E-1,4.0775838E-1,-6.011145E-2,1.0200545E-1,-3.9198425E-1,1.3849549E-1,-7.32442E-2,3.4071648E-1,4.559437E-2,4.6995923E-1,-2.0513076E-2],"split_indices":[4,11,5,1,1,8,12,6,13,2,9,3,6,5,5,12,6,2,2,3,13,2,6,9,6,3,6,0,3,11,1,3,4,2,3,3,0,1,4,4,1,5,2,10,8,7,9,1,0,12,10,6,8,0,12,10,0,5,0,5,9,3,1,0,0,0,0,0,0,0,0,0,0,0,0,0,0,0,0,0,0,0,0,0,0,0,0,0,0,0,0,0,0,0,0,0,0,0,0,0,0,0,0,0,0,0,0,0,0,0,0,0,0,0,0,0,0,0,0],"split_type":[0,0,0,0,0,0,0,0,0,0,0,0,0,0,0,0,0,0,0,0,0,0,0,0,0,0,0,0,0,0,0,0,0,0,0,0,0,0,0,0,0,0,0,0,0,0,0,0,0,0,0,0,0,0,0,0,0,0,0,0,0,0,0,0,0,0,0,0,0,0,0,0,0,0,0,0,0,0,0,0,0,0,0,0,0,0,0,0,0,0,0,0,0,0,0,0,0,0,0,0,0,0,0,0,0,0,0,0,0,0,0,0,0,0,0,0,0,0,0],"sum_hessian":[4.2318994E3,3.7671118E3,4.6478735E2,2.8896045E3,8.7750726E2,2.6525262E2,1.9953474E2,1.01376373E3,1.875841E3,5.9400446E2,2.835028E2,2.299935E2,3.5259113E1,7.1401955E1,1.2813278E2,2.9436798E2,7.1939575E2,2.9836774E2,1.5774731E3,5.040179E2,8.998654E1,8.5212776E1,1.9829004E2,8.0010376E1,1.4998312E2,2.8814665E1,6.4444504E0,6.563485E1,5.767105E0,8.166572E1,4.6467068E1,1.9297426E1,2.7507056E2,6.733455E2,4.6050236E1,7.133203E1,2.2703569E2,1.5054935E3,7.197957E1,2.9430792E2,2.0971E2,8.2263E1,7.7235436E0,6.7766094E0,7.8436165E1,1.6899458E2,2.9295454E1,7.855238E1,1.4579875E0,7.845082E1,7.153231E1,2.283148E1,5.9831834E0,4.0086093E0,2.435841E0,6.4129265E1,1.5055848E0,4.522407E0,1.2446984E0,8.417213E0,7.3248505E1,3.9343864E1,7.123203E0,1.5305651E1,3.9917765E0,1.4862029E2,1.2645029E2,6.635933E2,9.75217E0,4.5040363E1,1.0098727E0,2.8002628E1,4.3329403E1,2.1333502E2,1.3700682E1,7.210304E2,7.844632E2,6.159713E1,1.0382442E1,4.136198E1,2.5294592E2,1.8915552E2,2.055448E1,7.5403015E1,6.8599834E0,5.601393E0,2.1221507E0,5.5996175E0,1.1769916E0,5.2482605E1,2.5953562E1,1.228966E2,4.609798E1,1.1643363E1,1.765209E1,7.07324E1,7.8199835E0,6.996333E1,8.487486E0,7.029319E1,1.2391217E0,1.6032078E1,6.799403E0,4.282304E0,1.7008797E0,1.3789127E0,1.0569284E0,2.4542913E1,3.9586353E1,2.8955479E0,1.626859E0,2.20491E0,6.212303E0,2.8078344E1,4.517016E1,7.340128E0,3.2003735E1,5.661755E0,1.4614475E0],"tree_param":{"num_deleted":"0","num_feature":"14","num_nodes":"119","size_leaf_vector":"1"}},{"base_weights":[-8.337299E-3,-2.7871483E-3,-7.2923386E-1,5.0239187E-2,-7.392825E-2,-8.3770585E-1,-3.7172452E-1,1.1526018E-2,2.2039749E-1,-3.865136E-2,-6.534632E-1,-9.0795016E-1,-2.271406E-1,2.6923752E-1,-6.5597814E-1,-5.773663E-2,1.1569547E-1,6.852446E-2,5.9319484E-1,-9.6518874E-2,2.1532145E-1,-7.4278706E-1,-1.1353363E-1,-9.471559E-1,-4.053639E-2,-1.9705835E-1,1.4131907E-1,-9.8627076E-2,-2.5327653E-1,-1.9394621E-1,9.0073735E-2,3.9179242E-1,-9.160729E-2,1.6575898E-1,-3.4316906E-1,9.2251927E-1,1.5358481E-1,-8.6014785E-2,-1.4672928E0,7.948639E-1,1.2747961E-1,-8.5631895E-1,-2.2879349E-1,-6.0062724E-1,8.896912E-1,-1.1277562E-1,-2.9645407E-1,-1.694319E-1,1.3612902E-1,9.111328E-2,-8.180395E-2,-6.826997E-2,7.4103415E-2,-2.780344E-2,1.682074E-1,-1.5333784E-1,-1.5137043E-2,1.7773198E-1,1.1593977E-2,-1.9507897E-1,1.7637041E-1,2.9333735E-1,-1.3401788E-2,1.4357562E-1,-3.9023183E-2,-4.001811E-2,6.3152075E-2,-5.216388E-1,-1.2060386E-1,-2.647513E-1,2.697774E-1,5.4044012E-2,-1.8095103E-1,-2.7278727E-1,-8.7347776E-2,-2.2527781E-1,1.433137E-1,1.4398833E-1,-2.702734E-1,-1.0029166E-1,4.6173885E-1],"categories":[],"categories_nodes":[],"categories_segments":[],"categories_sizes":[],"default_left":[0,0,1,0,0,1,0,0,0,0,0,0,0,0,0,0,0,0,0,0,0,0,0,0,0,0,0,0,0,0,0,0,0,0,0,0,0,0,0,0,0,0,0,0,0,0,0,0,0,0,0,0,0,0,0,0,0,0,0,0,0,0,0,0,0,0,0,0,0,0,0,0,0,0,0,0,0,0,0,0,0],"id":16,"left_children":[1,3,5,7,9,11,13,15,17,19,21,23,25,-1,27,29,31,33,35,37,39,41,43,45,-1,-1,-1,47,-1,49,51,53,55,57,59,61,63,65,67,69,71,73,75,77,79,-1,-1,-1,-1,-1,-1,-1,-1,-1,-1,-1,-1,-1,-1,-1,-1,-1,-1,-1,-1,-1,-1,-1,-1,-1,-1,-1,-1,-1,-1,-1,-1,-1,-1,-1,-1],"loss_changes":[1.6595818E1,1.5536928E1,9.175358E-1,1.55422E1,3.593335E1,8.0231285E-1,3.8986278E0,1.3884568E1,2.4719305E1,2.440286E1,4.779907E0,5.0089836E-1,1.4375156E0,0E0,7.639384E-1,2.3290777E1,4.402128E1,1.2540904E1,1.8166016E1,1.9338593E1,1.5586911E1,4.843624E0,8.107418E0,8.753967E-2,0E0,0E0,0E0,1.0727624E0,0E0,2.3666988E1,2.7725735E1,2.70346E1,7.5656557E0,1.3696278E1,1.7511831E1,3.8978958E0,5.1658654E0,1.8890425E1,2.2562866E0,7.862749E0,1.0452314E1,1.8420143E0,6.6257734E0,4.0112123E0,4.8612533E0,0E0,0E0,0E0,0E0,0E0,0E0,0E0,0E0,0E0,0E0,0E0,0E0,0E0,0E0,0E0,0E0,0E0,0E0,0E0,0E0,0E0,0E0,0E0,0E0,0E0,0E0,0E0,0E0,0E0,0E0,0E0,0E0,0E0,0E0,0E0,0E0],"parents":[2147483647,0,0,1,1,2,2,3,3,4,4,5,5,6,6,7,7,8,8,9,9,10,10,11,11,12,12,14,14,15,15,16,16,17,17,18,18,19,19,20,20,21,21,22,22,23,23,27,27,29,29,30,30,31,31,32,32,33,33,34,34,35,35,36,36,37,37,38,38,39,39,40,40,41,41,42,42,43,43,44,44],"right_children":[2,4,6,8,10,12,14,16,18,20,22,24,26,-1,28,30,32,34,36,38,40,42,44,46,-1,-1,-1,48,-1,50,52,54,56,58,60,62,64,66,68,70,72,74,76,78,80,-1,-1,-1,-1,-1,-1,-1,-1,-1,-1,-1,-1,-1,-1,-1,-1,-1,-1,-1,-1,-1,-1,-1,-1,-1,-1,-1,-1,-1,-1,-1,-1,-1,-1,-1,-1],"split_conditions":[4.2146053E-2,4.079863E-2,2.766582E-1,6.3141936E-1,7.973425E-2,1.08757176E-1,3.306131E-1,5.8599483E-2,6.0160104E-2,4.5724864E-5,3.5588285E-1,9.2033815E-1,1.3927357E-1,2.6923752E-1,2.6617625E-1,8.437298E-3,1.4804544E-1,4.1025236E-2,2.2348216E-1,6.470941E-1,3.221105E-2,1.4551142E-2,7.6974615E-2,2.1123176E-2,-4.053639E-2,-1.9705835E-1,1.4131907E-1,2.977927E-1,-2.5327653E-1,1.4340635E-1,5.423268E-2,5.100822E-1,5.310763E-2,3.1018036E-4,3.499961E-2,4.6923943E-2,1.0848873E-2,8.991698E-2,6.2290452E-2,1.833729E-2,2.2762327E-2,4.7868565E-1,2.0225924E-1,1.4256589E-5,1.2672374E-2,-1.1277562E-1,-2.9645407E-1,-1.694319E-1,1.3612902E-1,9.111328E-2,-8.180395E-2,-6.826997E-2,7.4103415E-2,-2.780344E-2,1.682074E-1,-1.5333784E-1,-1.5137043E-2,1.7773198E-1,1.1593977E-2,-1.9507897E-1,1.7637041E-1,2.9333735E-1,-1.3401788E-2,1.4357562E-1,-3.9023183E-2,-4.001811E-2,6.3152075E-2,-5.216388E-1,-1.2060386E-1,-2.647513E-1,2.697774E-1,5.4044012E-2,-1.8095103E-1,-2.7278727E-1,-8.7347776E-2,-2.2527781E-1,1.433137E-1,1.4398833E-1,-2.702734E-1,-1.0029166E-1,4.6173885E-1],"split_indices":[7,5,1,4,1,5,1,1,2,0,4,2,8,0,12,8,9,8,9,2,10,0,3,10,0,0,0,13,0,13,4,2,2,3,6,1,3,2,10,4,0,2,3,3,6,0,0,0,0,0,0,0,0,0,0,0,0,0,0,0,0,0,0,0,0,0,0,0,0,0,0,0,0,0,0,0,0,0,0,0,0],"split_type":[0,0,0,0,0,0,0,0,0,0,0,0,0,0,0,0,0,0,0,0,0,0,0,0,0,0,0,0,0,0,0,0,0,0,0,0,0,0,0,0,0,0,0,0,0,0,0,0,